{"learner":{"attributes":{"scikit_learn":"{\"_estimator_type\": \"regressor\"}"},"feature_names":[],"feature_types":[],"gradient_booster":{"model":{"gbtree_model_param":{"num_parallel_tree":"1","num_trees":"100"},"iteration_indptr":[0,1,2,3,4,5,6,7,8,9,10,11,12,13,14,15,16,17,18,19,20,21,22,23,24,25,26,27,28,29,30,31,32,33,34,35,36,37,38,39,40,41,42,43,44,45,46,47,48,49,50,51,52,53,54,55,56,57,58,59,60,61,62,63,64,65,66,67,68,69,70,71,72,73,74,75,76,77,78,79,80,81,82,83,84,85,86,87,88,89,90,91,92,93,94,95,96,97,98,99,100],"tree_info":[0,0,0,0,0,0,0,0,0,0,0,0,0,0,0,0,0,0,0,0,0,0,0,0,0,0,0,0,0,0,0,0,0,0,0,0,0,0,0,0,0,0,0,0,0,0,0,0,0,0,0,0,0,0,0,0,0,0,0,0,0,0,0,0,0,0,0,0,0,0,0,0,0,0,0,0,0,0,0,0,0,0,0,0,0,0,0,0,0,0,0,0,0,0,0,0,0,0,0,0],"trees":[{"base_weights":[-8.291891E-6,-5.1317997E0,5.461378E0,-7.5643296E0,-2.578816E0,2.0041423E0,6.121137E0,-1.00797205E1,-5.0724044E0,-4.817231E0,-9.9000263E-1,6.131394E-1,3.5667717E0,5.0530305E0,6.813742E0,-1.5265721E1,-9.209049E0,-5.9571495E0,-3.4267018E0,-8.425679E0,-4.2871566E0,-1.7275838E0,1.0017078E0,-4.740364E-1,1.2254472E0,2.9961598E0,1.4837211E0,4.1907206E0,5.9466166E0,6.1277847E0,7.300167E0,-5.86348E0,-4.1271925E0,-9.815447E0,-7.231877E0,-2.1647599E0,-5.362323E0,-4.172219E0,-2.703584E0,-1.5305604E0,-2.6513786E0,-4.612437E0,-1.8943275E0,-2.4117086E0,-9.405242E-1,1.0006284E-1,2.06976E0,-1.2629528E0,-8.883936E-2,3.481415E-1,1.4690392E0,2.3974967E0,3.4419122E0,2.3526142E0,4.370886E0,1.5966073E0,1.8573078E0,1.6509866E0,2.0011218E0,2.120357E0,2.3906243E0,-3.5561326E0,-2.7720313E0,-2.7352574E0,-1.8039935E0,-1.8085403E0,-1.4621742E0,-1.303919E0,-7.9207766E-1,-9.152286E-1,-6.840411E-1,-1.5724529E0,-1.1219938E0,-7.788689E-1,-1.6672735E-1,-1.0398265E0,-4.8321062E-1,-4.002004E-1,-3.6473934E-2,-3.7049103E-1,1.8348382E-1,3.956831E-1,7.262926E-1,-3.9325684E-1,-8.1660464E-2,-9.4206356E-2,1.7146708E-1,-6.1448164E-2,2.2015686E-1,3.451114E-1,5.471152E-1,5.977267E-1,8.819379E-1,2.8901368E-1,1.0424551E0,4.842209E-1,8.3598274E-1,1.0760463E0,1.3933593E0],"categories":[],"categories_nodes":[],"categories_segments":[],"categories_sizes":[],"default_left":[0,0,0,0,0,0,0,0,0,0,0,0,0,0,0,0,0,0,0,0,0,0,0,0,0,0,0,0,0,0,0,0,0,0,0,0,0,0,0,0,0,0,0,0,0,0,0,0,0,0,0,0,0,0,0,0,0,0,0,0,0,0,0,0,0,0,0,0,0,0,0,0,0,0,0,0,0,0,0,0,0,0,0,0,0,0,0,0,0,0,0,0,0,0,0,0,0,0,0],"id":0,"left_children":[1,3,5,7,9,11,13,15,17,19,21,23,25,27,29,31,33,35,37,39,41,43,45,47,49,51,-1,53,55,57,59,-1,-1,61,63,-1,65,67,69,-1,-1,71,73,75,77,79,81,83,85,87,89,91,93,95,97,-1,-1,-1,-1,-1,-1,-1,-1,-1,-1,-1,-1,-1,-1,-1,-1,-1,-1,-1,-1,-1,-1,-1,-1,-1,-1,-1,-1,-1,-1,-1,-1,-1,-1,-1,-1,-1,-1,-1,-1,-1,-1,-1,-1],"loss_changes":[9.0077805E4,1.0270809E4,3.5391562E3,5.2642812E3,2.8759346E3,5.4339233E2,9.3245703E2,1.7603555E3,6.027666E2,6.0656055E2,6.9952844E2,8.978287E1,7.803052E1,3.7422363E2,2.1886719E2,1.1194922E2,3.6423633E2,1.687002E2,7.066284E1,1.2459961E1,2.2087207E2,1.8457275E2,1.2402042E2,1.4778324E1,1.7867172E1,1.4697571E1,0E0,7.8137695E1,5.5195312E0,7.647168E1,1.465625E1,0E0,0E0,2.129707E2,1.4967627E2,0E0,3.308545E1,8.003296E0,4.8048096E0,0E0,0E0,1.2254639E2,3.3320282E1,1.5066174E2,5.236226E1,4.924378E1,1.2365067E1,4.0254784E-1,5.235595E0,4.416077E0,5.4746857E0,2.9295044E0,4.8937988E-1,3.835846E0,3.526367E1,0E0,0E0,0E0,0E0,0E0,0E0,0E0,0E0,0E0,0E0,0E0,0E0,0E0,0E0,0E0,0E0,0E0,0E0,0E0,0E0,0E0,0E0,0E0,0E0,0E0,0E0,0E0,0E0,0E0,0E0,0E0,0E0,0E0,0E0,0E0,0E0,0E0,0E0,0E0,0E0,0E0,0E0,0E0,0E0],"parents":[2147483647,0,0,1,1,2,2,3,3,4,4,5,5,6,6,7,7,8,8,9,9,10,10,11,11,12,12,13,13,14,14,15,15,16,16,17,17,18,18,19,19,20,20,21,21,22,22,23,23,24,24,25,25,27,27,28,28,29,29,30,30,33,33,34,34,36,36,37,37,38,38,41,41,42,42,43,43,44,44,45,45,46,46,47,47,48,48,49,49,50,50,51,51,52,52,53,53,54,54],"right_children":[2,4,6,8,10,12,14,16,18,20,22,24,26,28,30,32,34,36,38,40,42,44,46,48,50,52,-1,54,56,58,60,-1,-1,62,64,-1,66,68,70,-1,-1,72,74,76,78,80,82,84,86,88,90,92,94,96,98,-1,-1,-1,-1,-1,-1,-1,-1,-1,-1,-1,-1,-1,-1,-1,-1,-1,-1,-1,-1,-1,-1,-1,-1,-1,-1,-1,-1,-1,-1,-1,-1,-1,-1,-1,-1,-1,-1,-1,-1,-1,-1,-1,-1],"split_conditions":[8.236628E-1,5.128305E-1,8.5798943E-1,7.40781E-1,7.4505275E-1,6.420123E-1,6.902978E-1,4.53614E-1,7.831321E-1,4.8172125E-1,6.502584E-1,5.621077E-1,7.166491E-1,9.0237325E-1,8.9578354E-1,3.3054593E-1,4.5550323E-1,3.8372692E-1,4.5103925E-1,5.153813E-1,6.6441363E-1,7.885311E-1,7.7646804E-1,4.9196297E-1,8.300613E-1,8.421163E-1,1.4837211E0,5.504697E-1,6.246701E-1,7.335081E-1,7.634008E-1,-5.86348E0,-4.1271925E0,6.7945844E-1,6.836056E-1,-2.1647599E0,7.617593E-1,8.0919737E-1,8.020823E-1,-1.5305604E0,-2.6513786E0,7.240131E-1,6.9481474E-1,5.6761926E-1,6.00801E-1,7.582006E-1,6.7754906E-1,7.124758E-1,8.3949345E-1,5.940252E-1,6.096511E-1,6.8039614E-1,3.7315044E-1,8.765047E-1,8.702102E-1,1.5966073E0,1.8573078E0,1.6509866E0,2.0011218E0,2.120357E0,2.3906243E0,-3.5561326E0,-2.7720313E0,-2.7352574E0,-1.8039935E0,-1.8085403E0,-1.4621742E0,-1.303919E0,-7.9207766E-1,-9.152286E-1,-6.840411E-1,-1.5724529E0,-1.1219938E0,-7.788689E-1,-1.6672735E-1,-1.0398265E0,-4.8321062E-1,-4.002004E-1,-3.6473934E-2,-3.7049103E-1,1.8348382E-1,3.956831E-1,7.262926E-1,-3.9325684E-1,-8.1660464E-2,-9.4206356E-2,1.7146708E-1,-6.1448164E-2,2.2015686E-1,3.451114E-1,5.471152E-1,5.977267E-1,8.819379E-1,2.8901368E-1,1.0424551E0,4.842209E-1,8.3598274E-1,1.0760463E0,1.3933593E0],"split_indices":[18,19,18,18,18,19,19,18,18,18,19,19,19,18,18,19,19,19,19,0,19,18,18,19,18,18,0,19,19,19,19,0,0,18,18,0,18,18,18,0,0,18,19,19,19,18,19,5,18,19,19,19,6,18,18,0,0,0,0,0,0,0,0,0,0,0,0,0,0,0,0,0,0,0,0,0,0,0,0,0,0,0,0,0,0,0,0,0,0,0,0,0,0,0,0,0,0,0,0],"split_type":[0,0,0,0,0,0,0,0,0,0,0,0,0,0,0,0,0,0,0,0,0,0,0,0,0,0,0,0,0,0,0,0,0,0,0,0,0,0,0,0,0,0,0,0,0,0,0,0,0,0,0,0,0,0,0,0,0,0,0,0,0,0,0,0,0,0,0,0,0,0,0,0,0,0,0,0,0,0,0,0,0,0,0,0,0,0,0,0,0,0,0,0,0,0,0,0,0,0,0],"sum_hessian":[3.212E3,1.656E3,1.556E3,8.47E2,8.09E2,2.5E2,1.306E3,4.2E2,4.27E2,3.35E2,4.74E2,1.33E2,1.17E2,5.17E2,7.89E2,5.8E1,3.62E2,2.76E2,1.51E2,4.1E1,2.94E2,3.46E2,1.28E2,4.8E1,8.5E1,8.5E1,3.2E1,2.66E2,2.51E2,3.33E2,4.56E2,1.2E1,4.6E1,2.74E2,8.8E1,8.5E1,1.91E2,7.2E1,7.9E1,6E0,3.5E1,2.58E2,3.6E1,1.84E2,1.62E2,7E1,5.8E1,1.5E1,3.3E1,1.9E1,6.6E1,3.9E1,4.6E1,2.5E1,2.41E2,7.7E1,1.74E2,1.6E2,1.73E2,3.47E2,1.09E2,5.6E1,2.18E2,3.2E1,5.6E1,7.6E1,1.15E2,6.3E1,9E0,4E1,3.9E1,1.47E2,1.11E2,2.3E1,1.3E1,7.8E1,1.06E2,1.09E2,5.3E1,1.9E1,5.1E1,2E1,3.8E1,1.4E1,1E0,2.5E1,8E0,8E0,1.1E1,3.7E1,2.9E1,2.5E1,1.4E1,1E0,4.5E1,1.1E1,1.4E1,6.6E1,1.75E2],"tree_param":{"num_deleted":"0","num_feature":"20","num_nodes":"99","size_leaf_vector":"1"}},{"base_weights":[-5.7597393E-3,-3.615697E0,3.836033E0,-5.772056E0,-2.1497288E0,1.8736191E0,4.40563E0,-7.752214E0,-4.0556545E0,-3.7326565E0,-1.0157323E0,7.604697E-1,3.0608704E0,3.8511004E0,5.0363255E0,-1.3097294E1,-7.2167583E0,-4.843615E0,-3.0009568E0,-6.3983335E0,-3.2056823E0,-1.8193285E0,1.8711261E-1,1.610076E-1,1.4200945E0,2.6127982E0,3.799241E0,3.3641953E0,4.333593E0,1.3165468E0,5.189935E0,-1.5506866E1,-2.79286E0,-8.6580105E0,-6.6191144E0,-1.8057444E0,-1.3016559E0,-3.4802337E0,-2.4163592E0,-5.1936226E0,-7.291456E0,-4.044675E0,-2.5947433E0,-2.594817E0,-1.198354E0,-2.3537238E-1,1.3241814E0,-1.5389849E-1,1.1252594E0,1.0942224E0,1.8513514E0,2.0554698E0,8.91766E-1,5.44574E-1,1.1608067E0,2.417722E0,3.618242E0,1.1779338E0,1.3770453E0,1.5062987E0,1.7044221E0,-5.137839E0,-2.0317087E0,-2.6866775E0,-1.5946096E0,-2.2225988E0,-1.7389817E0,-1.128122E0,-8.356764E-1,-7.756839E-1,-5.3709894E-1,-1.6691173E0,-6.246991E-1,-2.341811E0,-1.3544015E0,-1.5314952E0,-1.0384032E0,-1.0970978E0,-6.305157E-1,-8.767939E-1,-4.7868988E-1,-4.7632596E-1,-2.1337874E-1,-3.4810027E-1,2.0280778E-2,2.2451977E-1,5.683186E-1,-2.6582122E-1,1.9007137E-2,8.876343E-2,3.561626E-1,1.552312E-1,3.7629664E-1,5.9893566E-1,3.823334E-1,6.261976E-1,9.329682E-2,5.5039316E-1,8.7590927E-1,9.39607E-1,1.1580174E0],"categories":[],"categories_nodes":[],"categories_segments":[],"categories_sizes":[],"default_left":[0,0,0,0,0,0,0,0,0,0,0,0,0,0,0,0,0,0,0,0,0,0,0,0,0,0,0,0,0,0,0,0,0,0,0,0,0,0,0,0,0,0,0,0,0,0,0,0,0,0,0,0,0,0,0,0,0,0,0,0,0,0,0,0,0,0,0,0,0,0,0,0,0,0,0,0,0,0,0,0,0,0,0,0,0,0,0,0,0,0,0,0,0,0,0,0,0,0,0,0,0],"id":1,"left_children":[1,3,5,7,9,11,13,15,17,19,21,23,25,27,29,31,33,35,37,39,41,43,45,47,49,51,53,55,57,-1,59,61,-1,63,65,-1,-1,67,69,71,73,75,77,79,81,83,85,87,89,91,93,95,-1,-1,-1,97,99,-1,-1,-1,-1,-1,-1,-1,-1,-1,-1,-1,-1,-1,-1,-1,-1,-1,-1,-1,-1,-1,-1,-1,-1,-1,-1,-1,-1,-1,-1,-1,-1,-1,-1,-1,-1,-1,-1,-1,-1,-1,-1,-1,-1],"loss_changes":[4.4573777E4,5.225623E3,1.7321367E3,2.2457207E3,1.7697026E3,4.6287134E2,4.0239062E2,7.927168E2,2.8547705E2,5.5824316E2,5.580696E2,7.213322E1,4.6316772E1,1.371836E2,3.305078E1,1.0206445E2,1.873164E2,9.552344E1,3.5579468E1,3.4219727E1,1.6685547E2,1.6350977E2,1.1176321E2,2.9627108E1,1.0200714E1,1.574469E1,1.600769E0,6.963843E1,1.55078125E1,0E0,8.671875E0,9.616748E1,0E0,3.1974121E1,9.018359E1,0E0,0E0,5.873169E0,3.2117615E0,2.5262268E1,1.619812E1,7.139551E1,9.8628174E1,4.545349E1,3.5667267E1,4.771929E1,1.9266342E1,1.182721E1,8.8183975E-1,4.1528053E0,4.6917725E-1,1.9071503E0,0E0,0E0,0E0,1.5717163E1,1.7891602E1,0E0,0E0,0E0,0E0,0E0,0E0,0E0,0E0,0E0,0E0,0E0,0E0,0E0,0E0,0E0,0E0,0E0,0E0,0E0,0E0,0E0,0E0,0E0,0E0,0E0,0E0,0E0,0E0,0E0,0E0,0E0,0E0,0E0,0E0,0E0,0E0,0E0,0E0,0E0,0E0,0E0,0E0,0E0,0E0],"parents":[2147483647,0,0,1,1,2,2,3,3,4,4,5,5,6,6,7,7,8,8,9,9,10,10,11,11,12,12,13,13,14,14,15,15,16,16,17,17,18,18,19,19,20,20,21,21,22,22,23,23,24,24,25,25,26,26,27,27,28,28,30,30,31,31,33,33,34,34,37,37,38,38,39,39,40,40,41,41,42,42,43,43,44,44,45,45,46,46,47,47,48,48,49,49,50,50,51,51,55,55,56,56],"right_children":[2,4,6,8,10,12,14,16,18,20,22,24,26,28,30,32,34,36,38,40,42,44,46,48,50,52,54,56,58,-1,60,62,-1,64,66,-1,-1,68,70,72,74,76,78,80,82,84,86,88,90,92,94,96,-1,-1,-1,98,100,-1,-1,-1,-1,-1,-1,-1,-1,-1,-1,-1,-1,-1,-1,-1,-1,-1,-1,-1,-1,-1,-1,-1,-1,-1,-1,-1,-1,-1,-1,-1,-1,-1,-1,-1,-1,-1,-1,-1,-1,-1,-1,-1,-1],"split_conditions":[8.236628E-1,4.7258863E-1,8.678725E-1,7.3487544E-1,7.4505275E-1,6.5730023E-1,7.166491E-1,4.2630666E-1,7.7577794E-1,4.8172125E-1,6.068904E-1,6.0289854E-1,7.206858E-1,9.031789E-1,8.870337E-1,3.9840922E-1,6.6570175E-1,3.5243523E-1,7.9406595E-1,5.7074773E-1,5.6567717E-1,7.8136116E-1,6.7754906E-1,8.4855896E-1,8.4855896E-1,8.515969E-1,8.3150274E-1,6.194251E-1,6.479103E-1,1.3165468E0,7.6836437E-1,7.485659E-1,-2.79286E0,5.3106827E-1,3.630148E-1,-1.8057444E0,-1.3016559E0,4.402667E-1,8.11028E-1,4.773235E-1,7.137674E-1,7.130955E-1,5.0427055E-1,5.6761926E-1,5.489595E-1,3.54801E-1,7.858968E-1,5.0084186E-1,5.128305E-1,3.7329245E-1,6.6796166E-1,9.936847E-1,8.91766E-1,5.44574E-1,1.1608067E0,8.917936E-1,8.805983E-1,1.1779338E0,1.3770453E0,1.5062987E0,1.7044221E0,-5.137839E0,-2.0317087E0,-2.6866775E0,-1.5946096E0,-2.2225988E0,-1.7389817E0,-1.128122E0,-8.356764E-1,-7.756839E-1,-5.3709894E-1,-1.6691173E0,-6.246991E-1,-2.341811E0,-1.3544015E0,-1.5314952E0,-1.0384032E0,-1.0970978E0,-6.305157E-1,-8.767939E-1,-4.7868988E-1,-4.7632596E-1,-2.1337874E-1,-3.4810027E-1,2.0280778E-2,2.2451977E-1,5.683186E-1,-2.6582122E-1,1.9007137E-2,8.876343E-2,3.561626E-1,1.552312E-1,3.7629664E-1,5.9893566E-1,3.823334E-1,6.261976E-1,9.329682E-2,5.5039316E-1,8.7590927E-1,9.39607E-1,1.1580174E0],"split_indices":[18,19,18,18,18,19,19,18,18,18,19,19,19,18,18,19,18,19,18,4,19,18,19,18,18,18,18,19,19,0,19,16,0,2,19,0,0,19,18,18,3,18,18,19,19,1,18,19,19,1,5,15,0,0,0,18,18,0,0,0,0,0,0,0,0,0,0,0,0,0,0,0,0,0,0,0,0,0,0,0,0,0,0,0,0,0,0,0,0,0,0,0,0,0,0,0,0,0,0,0,0],"split_type":[0,0,0,0,0,0,0,0,0,0,0,0,0,0,0,0,0,0,0,0,0,0,0,0,0,0,0,0,0,0,0,0,0,0,0,0,0,0,0,0,0,0,0,0,0,0,0,0,0,0,0,0,0,0,0,0,0,0,0,0,0,0,0,0,0,0,0,0,0,0,0,0,0,0,0,0,0,0,0,0,0,0,0,0,0,0,0,0,0,0,0,0,0,0,0,0,0,0,0,0,0],"sum_hessian":[3.212E3,1.656E3,1.556E3,6.69E2,9.87E2,3.51E2,1.205E3,3.09E2,3.6E2,4.11E2,5.76E2,1.82E2,1.69E2,6.45E2,5.6E2,2.6E1,2.83E2,2.04E2,1.56E2,6.6E1,3.45E2,3.45E2,2.31E2,9.6E1,8.6E1,1.08E2,6.1E1,3.25E2,3.2E2,1.13E2,4.47E2,1.4E1,1.2E1,7.9E1,2.04E2,5.8E1,1.46E2,8.3E1,7.3E1,3.1E1,3.5E1,1.43E2,2.02E2,1.52E2,1.93E2,1.69E2,6.2E1,7.3E1,2.3E1,5.1E1,3.5E1,4.5E1,6.3E1,3E0,5.8E1,7.1E1,2.54E2,1.3E2,1.9E2,3.41E2,1.06E2,1.1E1,3E0,7.1E1,8E0,1E2,1.04E2,5.6E1,2.7E1,5.5E1,1.8E1,2.7E1,4E0,2.8E1,7E0,4.8E1,9.5E1,6.2E1,1.4E2,1.13E2,3.9E1,1.06E2,8.7E1,4.1E1,1.28E2,3.2E1,3E1,1.6E1,5.7E1,2E0,2.1E1,1.2E1,3.9E1,2.6E1,9E0,4.4E1,1E0,3.5E1,3.6E1,8.9E1,1.65E2],"tree_param":{"num_deleted":"0","num_feature":"20","num_nodes":"101","size_leaf_vector":"1"}},{"base_weights":[-1.0512285E-2,-2.5954409E0,2.656121E0,-3.7585645E0,-1.2393905E0,7.046891E-1,2.9791627E0,-5.737482E0,-2.9483187E0,-2.3787234E0,-4.8295403E-1,1.4183824E-1,1.5857297E0,2.4243252E0,3.3520014E0,-9.341753E0,-5.320768E0,-3.8910174E0,-2.2705865E0,-3.4298363E0,-1.8848372E0,-9.5592564E-1,3.0815634E-1,-3.8981086E-1,5.2733773E-1,1.2526822E0,2.0778441E0,1.8597491E0,2.8285937E0,2.6968338E0,3.5093665E0,-1.2319977E1,-6.5349383E0,-6.1337004E0,-4.648253E0,-4.465956E0,-2.9856672E0,-2.5975351E0,-1.6115617E0,-5.2248635E0,-3.0550802E0,-2.6763215E0,-1.1345291E0,-1.3582563E0,-5.175136E-1,-9.1182846E-1,6.635793E-1,-8.700114E-1,-2.2108154E-1,4.3103492E-1,1.167984E0,1.4427037E0,9.2557824E-1,6.3766026E-1,2.6296082E-1,1.1985753E0,2.1322794E0,2.5547066E0,3.118316E0,2.3934782E0,3.3413715E0,3.2604876E0,3.786275E0,-4.098527E0,-1.2563936E0,-2.0326023E0,-4.7539675E-1,-2.142421E0,-1.647333E0,-1.5103441E0,-1.0081258E0,-1.5511144E0,-1.2382357E0,-9.06612E-1,1.1410675E-1,-8.7723905E-1,-6.6979367E-1,-6.296289E-1,-4.235463E-1,-1.7578667E0,-6.0437167E-1,-1.9462665E0,-8.377548E-1,-8.207339E-1,4.815033E-1,-1.3828744E0,-2.9740235E-1,-4.5971045E-1,-1.3209961E-1,-2.2731128E-1,-4.2380262E-2,-4.9896783E-1,-9.5040895E-2,1.4444068E-1,3.9878935E-1,-3.0848512E-1,-1.383667E-1,-9.359725E-2,7.151184E-2,8.456898E-2,2.1004176E-1,3.9880373E-2,3.8046572E-1,2.519126E-1,4.636807E-1,9.746094E-2,2.9019558E-1,2.8143698E-1,4.3865082E-1,3.8333714E-1,6.5393305E-1,4.9102846E-1,7.8811735E-1,7.2200644E-1,9.665475E-1,5.750717E-1,7.627915E-1,5.4342806E-1,1.0422181E0,9.28455E-1,1.0833023E0,1.9948609E0,1.1234651E0],"categories":[],"categories_nodes":[],"categories_segments":[],"categories_sizes":[],"default_left":[0,0,0,0,0,0,0,0,0,0,0,0,0,0,0,0,0,0,0,0,0,0,0,0,0,0,0,0,0,0,0,0,0,0,0,0,0,0,0,0,0,0,0,0,0,0,0,0,0,0,0,0,0,0,0,0,0,0,0,0,0,0,0,0,0,0,0,0,0,0,0,0,0,0,0,0,0,0,0,0,0,0,0,0,0,0,0,0,0,0,0,0,0,0,0,0,0,0,0,0,0,0,0,0,0,0,0,0,0,0,0,0,0,0,0,0,0,0,0,0,0,0,0],"id":2,"left_children":[1,3,5,7,9,11,13,15,17,19,21,23,25,27,29,31,33,35,37,39,41,43,45,47,49,51,53,55,57,59,61,63,65,67,69,71,73,75,77,79,81,83,85,87,89,91,93,95,97,99,101,103,105,-1,-1,107,109,111,113,115,117,119,121,-1,-1,-1,-1,-1,-1,-1,-1,-1,-1,-1,-1,-1,-1,-1,-1,-1,-1,-1,-1,-1,-1,-1,-1,-1,-1,-1,-1,-1,-1,-1,-1,-1,-1,-1,-1,-1,-1,-1,-1,-1,-1,-1,-1,-1,-1,-1,-1,-1,-1,-1,-1,-1,-1,-1,-1,-1,-1,-1,-1],"loss_changes":[2.2154285E4,2.569421E3,9.951826E2,1.3908779E3,6.4953503E2,1.1184725E2,2.7258984E2,3.3179102E2,3.9047607E2,1.4979358E2,1.7054318E2,2.8693676E1,1.1820099E1,1.2004346E2,7.394336E1,1.2847266E2,9.723193E1,1.22001465E2,7.4674805E1,4.7943848E1,1.1989197E2,4.956729E1,7.475247E1,4.588067E0,4.4939365E0,2.0832825E0,8.476257E-2,3.9248352E1,1.726709E1,2.3481934E1,3.2382324E1,6.2809692E1,7.114319E0,2.6187256E1,4.774341E1,1.6096191E1,1.3882324E1,2.2430176E1,9.103851E0,1.8758698E1,5.4884277E1,2.9846924E1,4.9169586E1,2.297882E1,1.2364128E1,1.6910011E1,1.54841385E1,4.9623203E-1,1.9539604E0,2.6922626E0,8.6889076E-1,7.497177E-1,2.6244354E-1,0E0,0E0,3.4340591E0,3.8302002E0,6.9241943E0,3.295044E0,3.1586304E0,3.6542969E0,9.087158E0,1.0771484E1,0E0,0E0,0E0,0E0,0E0,0E0,0E0,0E0,0E0,0E0,0E0,0E0,0E0,0E0,0E0,0E0,0E0,0E0,0E0,0E0,0E0,0E0,0E0,0E0,0E0,0E0,0E0,0E0,0E0,0E0,0E0,0E0,0E0,0E0,0E0,0E0,0E0,0E0,0E0,0E0,0E0,0E0,0E0,0E0,0E0,0E0,0E0,0E0,0E0,0E0,0E0,0E0,0E0,0E0,0E0,0E0,0E0,0E0,0E0,0E0],"parents":[2147483647,0,0,1,1,2,2,3,3,4,4,5,5,6,6,7,7,8,8,9,9,10,10,11,11,12,12,13,13,14,14,15,15,16,16,17,17,18,18,19,19,20,20,21,21,22,22,23,23,24,24,25,25,26,26,27,27,28,28,29,29,30,30,31,31,32,32,33,33,34,34,35,35,36,36,37,37,38,38,39,39,40,40,41,41,42,42,43,43,44,44,45,45,46,46,47,47,48,48,49,49,50,50,51,51,52,52,55,55,56,56,57,57,58,58,59,59,60,60,61,61,62,62],"right_children":[2,4,6,8,10,12,14,16,18,20,22,24,26,28,30,32,34,36,38,40,42,44,46,48,50,52,54,56,58,60,62,64,66,68,70,72,74,76,78,80,82,84,86,88,90,92,94,96,98,100,102,104,106,-1,-1,108,110,112,114,116,118,120,122,-1,-1,-1,-1,-1,-1,-1,-1,-1,-1,-1,-1,-1,-1,-1,-1,-1,-1,-1,-1,-1,-1,-1,-1,-1,-1,-1,-1,-1,-1,-1,-1,-1,-1,-1,-1,-1,-1,-1,-1,-1,-1,-1,-1,-1,-1,-1,-1,-1,-1,-1,-1,-1,-1,-1,-1,-1,-1,-1,-1],"split_conditions":[8.2070714E-1,5.233832E-1,8.515969E-1,7.0939815E-1,7.401711E-1,6.405734E-1,6.902978E-1,2.2476742E-1,7.541216E-1,5.0284046E-1,6.2802786E-1,5.6076396E-1,6.935309E-1,8.928858E-1,8.801813E-1,3.9840922E-1,4.024636E-1,4.100102E-1,7.9143834E-1,3.7317243E-1,4.1577214E-1,7.874414E-1,7.582006E-1,4.7728065E-1,6.725312E-1,6.8221533E-1,5.91247E-1,6.2802786E-1,9.118949E-1,7.5401646E-1,7.422457E-1,6.939692E-1,5.222365E-1,6.519988E-1,6.8829656E-1,3.0556643E-1,8.376904E-1,4.402667E-1,4.2869452E-1,7.930533E-1,4.2091328E-1,5.316816E-1,3.6241338E-1,5.2009696E-1,8.0919737E-1,3.6899978E-1,5.719745E-1,8.3150274E-1,8.3949345E-1,8.361715E-1,3.7096372E-1,3.4640336E-1,4.8837173E-1,6.3766026E-1,2.6296082E-1,8.734011E-1,5.624582E-1,5.621077E-1,5.890859E-1,6.061174E-1,4.7159955E-1,9.1247165E-1,3.709402E-1,-4.098527E0,-1.2563936E0,-2.0326023E0,-4.7539675E-1,-2.142421E0,-1.647333E0,-1.5103441E0,-1.0081258E0,-1.5511144E0,-1.2382357E0,-9.06612E-1,1.1410675E-1,-8.7723905E-1,-6.6979367E-1,-6.296289E-1,-4.235463E-1,-1.7578667E0,-6.0437167E-1,-1.9462665E0,-8.377548E-1,-8.207339E-1,4.815033E-1,-1.3828744E0,-2.9740235E-1,-4.5971045E-1,-1.3209961E-1,-2.2731128E-1,-4.2380262E-2,-4.9896783E-1,-9.5040895E-2,1.4444068E-1,3.9878935E-1,-3.0848512E-1,-1.383667E-1,-9.359725E-2,7.151184E-2,8.456898E-2,2.1004176E-1,3.9880373E-2,3.8046572E-1,2.519126E-1,4.636807E-1,9.746094E-2,2.9019558E-1,2.8143698E-1,4.3865082E-1,3.8333714E-1,6.5393305E-1,4.9102846E-1,7.8811735E-1,7.2200644E-1,9.665475E-1,5.750717E-1,7.627915E-1,5.4342806E-1,1.0422181E0,9.28455E-1,1.0833023E0,1.9948609E0,1.1234651E0],"split_indices":[18,19,18,18,18,19,19,18,18,18,19,19,19,18,18,19,19,19,18,14,13,18,18,19,14,4,8,19,18,19,19,0,13,18,18,19,4,19,19,17,17,14,17,13,18,1,2,18,18,18,1,15,0,0,0,18,9,19,19,10,6,18,7,0,0,0,0,0,0,0,0,0,0,0,0,0,0,0,0,0,0,0,0,0,0,0,0,0,0,0,0,0,0,0,0,0,0,0,0,0,0,0,0,0,0,0,0,0,0,0,0,0,0,0,0,0,0,0,0,0,0,0,0],"split_type":[0,0,0,0,0,0,0,0,0,0,0,0,0,0,0,0,0,0,0,0,0,0,0,0,0,0,0,0,0,0,0,0,0,0,0,0,0,0,0,0,0,0,0,0,0,0,0,0,0,0,0,0,0,0,0,0,0,0,0,0,0,0,0,0,0,0,0,0,0,0,0,0,0,0,0,0,0,0,0,0,0,0,0,0,0,0,0,0,0,0,0,0,0,0,0,0,0,0,0,0,0,0,0,0,0,0,0,0,0,0,0,0,0,0,0,0,0,0,0,0,0,0,0],"sum_hessian":[3.212E3,1.631E3,1.581E3,8.77E2,7.54E2,2.25E2,1.356E3,2.53E2,6.24E2,3E2,4.54E2,1.38E2,8.7E1,5.48E2,8.08E2,2.4E1,2.29E2,2.59E2,3.65E2,9.4E1,2.06E2,2.84E2,1.7E2,5.8E1,8E1,5.4E1,3.3E1,2.31E2,3.17E2,1.6E2,6.48E2,1E1,1.4E1,1E2,1.29E2,1.56E2,1.03E2,2.42E2,1.23E2,1.4E1,8E1,9.9E1,1.07E2,1.47E2,1.37E2,3.8E1,1.32E2,1.4E1,4.4E1,7.1E1,9E0,3.2E1,2.2E1,3.1E1,2E0,6.9E1,1.62E2,1.68E2,1.49E2,1.12E2,4.8E1,3.48E2,3E2,8E0,2E0,1.3E1,1E0,3.5E1,6.5E1,9.7E1,3.2E1,4.6E1,1.1E2,1.02E2,1E0,1.24E2,1.18E2,3.3E1,9E1,1.1E1,3E0,4E0,7.6E1,9.8E1,1E0,3E0,1.04E2,1.23E2,2.4E1,8.3E1,5.4E1,1.6E1,2.2E1,1.05E2,2.7E1,9E0,5E0,3.7E1,7E0,4.7E1,2.4E1,1E0,8E0,6E0,2.6E1,2E0,2E1,3.7E1,3.2E1,1E1,1.52E2,1.4E1,1.54E2,2.2E1,1.27E2,3E1,8.2E1,5E0,4.3E1,2.43E2,1.05E2,2E0,2.98E2],"tree_param":{"num_deleted":"0","num_feature":"20","num_nodes":"123","size_leaf_vector":"1"}},{"base_weights":[-1.153024E-2,-1.9092208E0,1.7984929E0,-3.0600216E0,-1.2386053E0,4.3772453E-1,2.1029227E0,-5.4391103E0,-2.654922E0,-2.1839688E0,-7.7749646E-1,-1.4927663E-1,9.8805434E-1,1.834491E0,2.5117319E0,-7.453576E0,-4.5903916E0,-3.2534459E0,-1.885762E0,-3.4285927E0,-1.7703351E0,-1.1118859E0,7.7629775E-2,-7.1649563E-1,2.2880358E-3,7.7166533E-1,1.5570228E0,1.4611065E0,2.0829694E0,2.3845935E0,2.9598038E0,-8.267123E0,-2.8713806E0,-4.8998065E0,-9.374542E-1,-4.0068517E0,-2.9047778E0,-2.128722E0,-1.5640593E0,-3.6688838E0,-1.3796661E0,-2.1437962E0,-7.612197E-1,-1.4109511E0,-7.7103347E-1,-3.0264503E-1,6.1095726E-1,-3.1347293E-1,-5.3464854E-1,-1.6993888E-1,2.5340462E-1,9.957189E-1,4.4955817E-1,1.6131388E0,6.20636E-1,9.88611E-1,1.6812676E0,1.5936569E0,2.1752331E0,5.45603E-1,2.4513843E0,1.5958862E0,8.60808E-1,-2.782804E0,-1.076109E0,-2.6189578E-1,-9.458199E-1,-4.2073748E-1,-1.5213925E0,-6.7794803E-3,-5.5343324E-1,-1.4176265E0,-1.0772617E0,-9.475438E-1,-7.6139086E-1,-7.4960256E-1,-5.8535093E-1,-5.3610164E-1,-3.8837835E-1,-1.0169076E0,-1.721177E0,-4.7904316E-2,-9.5091707E-1,-7.494488E-1,-4.5858225E-1,-4.3622896E-1,1.03434585E-1,-5.140813E-1,-2.675495E-1,-2.7701825E-1,-1.2697913E-1,-1.496343E-1,1.5404579E-1,1.0256653E-1,3.5354117E-1,-1.7343293E-1,-2.0007323E-2,-9.4307646E-2,2.1511842E-2,-5.8097333E-2,1.0429757E-1,1.607504E-1,3.2589445E-1,-6.823883E-2,1.594986E-1,3.3864993E-1,5.5175906E-1,2.027893E-2,2.3473512E-1,1.0939637E-1,3.2130706E-1,4.5752168E-1,5.779066E-1,1.6720094E-1,4.9207613E-1,5.9993106E-1,7.0838994E-1,7.0358056E-1,8.1247383E-1],"categories":[],"categories_nodes":[],"categories_segments":[],"categories_sizes":[],"default_left":[0,0,0,0,0,0,0,0,0,0,0,0,0,0,0,0,0,0,0,0,0,0,0,0,0,0,0,0,0,0,0,0,0,0,0,0,0,0,0,0,0,0,0,0,0,0,0,0,0,0,0,0,0,0,0,0,0,0,0,0,0,0,0,0,0,0,0,0,0,0,0,0,0,0,0,0,0,0,0,0,0,0,0,0,0,0,0,0,0,0,0,0,0,0,0,0,0,0,0,0,0,0,0,0,0,0,0,0,0,0,0,0,0,0,0,0,0,0,0],"id":3,"left_children":[1,3,5,7,9,11,13,15,17,19,21,23,25,27,29,31,33,35,37,39,41,43,45,47,49,51,53,55,57,59,61,63,65,67,69,71,73,75,77,79,81,83,85,87,89,91,93,-1,95,97,99,101,103,105,107,109,111,113,115,-1,117,-1,-1,-1,-1,-1,-1,-1,-1,-1,-1,-1,-1,-1,-1,-1,-1,-1,-1,-1,-1,-1,-1,-1,-1,-1,-1,-1,-1,-1,-1,-1,-1,-1,-1,-1,-1,-1,-1,-1,-1,-1,-1,-1,-1,-1,-1,-1,-1,-1,-1,-1,-1,-1,-1,-1,-1,-1,-1],"loss_changes":[1.1039652E4,1.2070776E3,6.8053467E2,5.416533E2,4.3116602E2,9.7706856E1,1.428794E2,1.0769165E2,2.2174341E2,1.6124622E2,1.9138364E2,1.2639282E1,1.800499E1,7.25708E1,2.3134277E1,6.2002075E1,6.4353516E1,6.1125732E1,1.378772E1,3.4325256E1,9.1076904E1,4.7943848E1,3.8516186E1,1.292697E0,5.1032E0,7.8518295E0,1.2057724E0,3.2562073E1,1.8519531E1,1.1341553E1,8.853699E0,5.6438965E1,5.8971405E-2,2.647644E1,4.938731E0,8.438965E0,9.944458E0,3.1383667E0,3.5740204E0,2.1553162E1,2.1332287E1,3.5203674E1,5.2611305E1,3.8535614E1,1.163707E1,1.8024181E1,1.16604E1,0E0,4.0888166E-1,2.4654262E0,2.0899217E0,2.209381E0,2.8446484E0,2.1936264E0,3.0506814E-1,5.11158E0,5.598999E0,2.9972534E0,8.565552E0,0E0,3.7609863E0,0E0,0E0,0E0,0E0,0E0,0E0,0E0,0E0,0E0,0E0,0E0,0E0,0E0,0E0,0E0,0E0,0E0,0E0,0E0,0E0,0E0,0E0,0E0,0E0,0E0,0E0,0E0,0E0,0E0,0E0,0E0,0E0,0E0,0E0,0E0,0E0,0E0,0E0,0E0,0E0,0E0,0E0,0E0,0E0,0E0,0E0,0E0,0E0,0E0,0E0,0E0,0E0,0E0,0E0,0E0,0E0,0E0,0E0],"parents":[2147483647,0,0,1,1,2,2,3,3,4,4,5,5,6,6,7,7,8,8,9,9,10,10,11,11,12,12,13,13,14,14,15,15,16,16,17,17,18,18,19,19,20,20,21,21,22,22,23,23,24,24,25,25,26,26,27,27,28,28,29,29,30,30,31,31,32,32,33,33,34,34,35,35,36,36,37,37,38,38,39,39,40,40,41,41,42,42,43,43,44,44,45,45,46,46,48,48,49,49,50,50,51,51,52,52,53,53,54,54,55,55,56,56,57,57,58,58,60,60],"right_children":[2,4,6,8,10,12,14,16,18,20,22,24,26,28,30,32,34,36,38,40,42,44,46,48,50,52,54,56,58,60,62,64,66,68,70,72,74,76,78,80,82,84,86,88,90,92,94,-1,96,98,100,102,104,106,108,110,112,114,116,-1,118,-1,-1,-1,-1,-1,-1,-1,-1,-1,-1,-1,-1,-1,-1,-1,-1,-1,-1,-1,-1,-1,-1,-1,-1,-1,-1,-1,-1,-1,-1,-1,-1,-1,-1,-1,-1,-1,-1,-1,-1,-1,-1,-1,-1,-1,-1,-1,-1,-1,-1,-1,-1,-1,-1,-1,-1,-1,-1],"split_conditions":[8.134612E-1,4.5550323E-1,8.534089E-1,6.519988E-1,7.2627956E-1,6.087265E-1,7.2518677E-1,4.2630666E-1,7.512356E-1,4.8172125E-1,6.194251E-1,4.9196297E-1,6.935309E-1,8.917936E-1,9.127673E-1,7.485659E-1,7.780012E-1,3.2307258E-1,7.786558E-1,5.357285E-1,6.2802786E-1,7.736101E-1,6.6753685E-1,5.6820613E-1,8.3150274E-1,6.8288136E-1,6.971313E-1,6.5610045E-1,6.052794E-1,4.6815822E-1,5.050807E-1,4.3474266E-1,2.381635E-1,1.20194405E-1,7.3999363E-1,7.130955E-1,7.2495717E-1,3.6553404E-1,4.1436294E-1,5.1413465E-1,6.767205E-1,3.819885E-1,5.8903295E-1,5.6567717E-1,5.578822E-1,5.4313457E-1,7.038867E-1,-3.1347293E-1,8.3813035E-1,7.908527E-1,5.365311E-1,3.3546075E-1,8.1607753E-1,4.3026558E-1,7.530622E-1,5.305814E-1,8.7896216E-1,5.128305E-1,9.1217923E-1,5.45603E-1,7.6836437E-1,1.5958862E0,8.60808E-1,-2.782804E0,-1.076109E0,-2.6189578E-1,-9.458199E-1,-4.2073748E-1,-1.5213925E0,-6.7794803E-3,-5.5343324E-1,-1.4176265E0,-1.0772617E0,-9.475438E-1,-7.6139086E-1,-7.4960256E-1,-5.8535093E-1,-5.3610164E-1,-3.8837835E-1,-1.0169076E0,-1.721177E0,-4.7904316E-2,-9.5091707E-1,-7.494488E-1,-4.5858225E-1,-4.3622896E-1,1.03434585E-1,-5.140813E-1,-2.675495E-1,-2.7701825E-1,-1.2697913E-1,-1.496343E-1,1.5404579E-1,1.0256653E-1,3.5354117E-1,-1.7343293E-1,-2.0007323E-2,-9.4307646E-2,2.1511842E-2,-5.8097333E-2,1.0429757E-1,1.607504E-1,3.2589445E-1,-6.823883E-2,1.594986E-1,3.3864993E-1,5.5175906E-1,2.027893E-2,2.3473512E-1,1.0939637E-1,3.2130706E-1,4.5752168E-1,5.779066E-1,1.6720094E-1,4.9207613E-1,5.9993106E-1,7.0838994E-1,7.0358056E-1,8.1247383E-1],"split_indices":[18,19,18,18,18,19,19,18,18,18,19,19,19,18,18,16,4,19,18,2,19,18,19,10,18,4,1,19,19,7,6,19,2,8,5,18,18,19,19,1,2,2,14,19,19,2,19,0,18,17,19,7,18,8,0,19,18,19,18,0,19,0,0,0,0,0,0,0,0,0,0,0,0,0,0,0,0,0,0,0,0,0,0,0,0,0,0,0,0,0,0,0,0,0,0,0,0,0,0,0,0,0,0,0,0,0,0,0,0,0,0,0,0,0,0,0,0,0,0],"split_type":[0,0,0,0,0,0,0,0,0,0,0,0,0,0,0,0,0,0,0,0,0,0,0,0,0,0,0,0,0,0,0,0,0,0,0,0,0,0,0,0,0,0,0,0,0,0,0,0,0,0,0,0,0,0,0,0,0,0,0,0,0,0,0,0,0,0,0,0,0,0,0,0,0,0,0,0,0,0,0,0,0,0,0,0,0,0,0,0,0,0,0,0,0,0,0,0,0,0,0,0,0,0,0,0,0,0,0,0,0,0,0,0,0,0,0,0,0,0,0],"sum_hessian":[3.212E3,1.568E3,1.644E3,5.76E2,9.92E2,3.01E2,1.343E3,8.2E1,4.94E2,3.24E2,6.68E2,1.46E2,1.55E2,8.14E2,5.29E2,2.2E1,6E1,2.76E2,2.18E2,7.9E1,2.45E2,4.8E2,1.88E2,3E1,1.16E2,1.14E2,4.1E1,3.28E2,4.86E2,4.17E2,1.12E2,1.8E1,4E0,5.5E1,5E0,8.4E1,1.92E2,1.21E2,9.7E1,7E1,9E0,1.78E2,6.7E1,2.54E2,2.26E2,1.1E2,7.8E1,9E0,2.1E1,6.9E1,4.7E1,6.6E1,4.8E1,3.8E1,3E0,1.06E2,2.22E2,8E1,4.06E2,4.7E1,3.7E2,2E0,1.1E2,1.4E1,4E0,1E0,3E0,3E0,5.2E1,3E0,2E0,2.7E1,5.7E1,1.09E2,8.3E1,3.5E1,8.6E1,5E1,4.7E1,6.4E1,6E0,6E0,3E0,1.11E2,6.7E1,4.1E1,2.6E1,1.59E2,9.5E1,1.56E2,7E1,8.9E1,2.1E1,5.4E1,2.4E1,1.9E1,2E0,4.3E1,2.6E1,8E0,3.9E1,1.2E1,5.4E1,5E0,4.3E1,1.4E1,2.4E1,1E0,2E0,1.3E1,9.3E1,1.4E2,8.2E1,4E0,7.6E1,2.15E2,1.91E2,2.69E2,1.01E2],"tree_param":{"num_deleted":"0","num_feature":"20","num_nodes":"119","size_leaf_vector":"1"}},{"base_weights":[-1.1464789E-2,-1.3702742E0,1.2448305E0,-2.0992427E0,-8.3650285E-1,2.5527847E-1,1.4728884E0,-3.7421281E0,-1.8053652E0,-1.4735073E0,-5.197975E-1,-1.3217428E-1,6.586851E-1,1.128625E0,1.6452955E0,-5.1990867E0,-3.1437945E0,-2.246405E0,-1.2926464E0,-1.6672189E0,-7.246605E-2,-7.0600545E-1,2.684151E-1,-5.62144E-1,-3.345258E-2,3.7905735E-1,8.3313835E-1,7.48123E-1,1.3108618E0,1.4408671E0,1.8220202E0,-7.215332E0,-3.790112E0,-3.6283352E0,-1.4885983E0,-3.4185543E0,-2.0969493E0,-2.0651085E0,-1.2263832E0,-2.7829492E0,-1.4517092E0,-8.151601E-1,1.2059E0,-9.933897E-1,-4.627557E-1,2.566636E-2,9.2535794E-1,-6.9258726E-1,-2.738703E-1,-1.2717505E-1,1.7766738E-1,8.0379486E-1,2.2308217E-1,7.305592E-1,1.3246846E0,3.704885E-1,8.355685E-1,1.1085749E0,1.465262E0,1.3355061E0,1.8054212E0,1.2767091E0,1.8029343E0,-2.3731213E0,-1.4395295E-1,-1.2717049E0,-5.325476E-1,-1.1940678E0,-4.9404147E-1,1.4850871E-2,-8.172089E-1,-1.0475036E0,-1.7275544E-1,-6.8365806E-1,-5.3012145E-1,-6.3603973E-1,-1.6120148E-1,-3.9746878E-1,-2.7419114E-1,-1.2279968E0,-6.498105E-1,-6.332266E-1,-3.4851515E-1,-6.8092537E-1,-1.2322632E-1,5.6622624E-1,-1.19496465E-1,-3.767269E-1,-1.9901057E-1,-1.7462651E-1,7.218816E-2,-4.324933E-1,3.477727E-2,3.4310868E-1,1.2732239E-1,-2.9434205E-3,-2.1840195E-1,-1.9329835E-2,-9.3975835E-2,-6.3525684E-2,5.636719E-2,1.1439345E-2,1.2509644E-1,-1.4987183E-2,2.5921267E-1,-2.4862204E-2,1.00051254E-1,3.471722E-1,1.9147326E-1,3.5810854E-2,4.2067567E-1,2.1360002E-1,4.9239807E-2,1.0997029E-1,2.6954353E-1,2.4833681E-2,3.3927682E-1,4.1031384E-1,5.1715034E-1,3.4379312E-1,4.4185293E-1,4.7674862E-1,6.140488E-1,4.918671E-1,5.7588345E-1],"categories":[],"categories_nodes":[],"categories_segments":[],"categories_sizes":[],"default_left":[0,0,0,0,0,0,0,0,0,0,0,0,0,0,0,0,0,0,0,0,0,0,0,0,0,0,0,0,0,0,0,0,0,0,0,0,0,0,0,0,0,0,0,0,0,0,0,0,0,0,0,0,0,0,0,0,0,0,0,0,0,0,0,0,0,0,0,0,0,0,0,0,0,0,0,0,0,0,0,0,0,0,0,0,0,0,0,0,0,0,0,0,0,0,0,0,0,0,0,0,0,0,0,0,0,0,0,0,0,0,0,0,0,0,0,0,0,0,0,0,0,0,0,0,0],"id":4,"left_children":[1,3,5,7,9,11,13,15,17,19,21,23,25,27,29,31,33,35,37,39,41,43,45,47,49,51,53,55,57,59,61,63,65,67,69,71,73,75,77,79,81,83,85,87,89,91,93,95,97,99,101,103,105,107,109,111,113,115,117,119,121,-1,123,-1,-1,-1,-1,-1,-1,-1,-1,-1,-1,-1,-1,-1,-1,-1,-1,-1,-1,-1,-1,-1,-1,-1,-1,-1,-1,-1,-1,-1,-1,-1,-1,-1,-1,-1,-1,-1,-1,-1,-1,-1,-1,-1,-1,-1,-1,-1,-1,-1,-1,-1,-1,-1,-1,-1,-1,-1,-1,-1,-1,-1,-1],"loss_changes":[5.4865083E3,5.990183E2,3.7650122E2,3.0803418E2,1.7939032E2,4.9165573E1,7.868579E1,6.90863E1,1.2259802E2,8.021301E1,8.795883E1,6.815216E0,7.196617E0,3.0638977E1,2.9961914E1,4.9355713E1,5.2343567E1,4.4861206E1,1.0724457E1,5.847711E1,3.611209E1,3.3374878E1,1.8315533E1,9.3842125E-1,2.634437E0,3.861846E0,3.7719421E0,4.6438065E0,7.9642334E0,1.3836182E1,1.4622681E1,4.3020752E1,8.75647E0,3.1795898E1,3.433878E1,4.641144E0,1.1935181E1,4.5798492E-1,6.206299E0,2.4277618E1,3.9593872E1,1.3185565E1,1.6058146E1,1.8302597E1,2.2299316E1,1.1424209E1,2.9052715E0,4.765253E-1,7.054603E-2,2.4913454E0,1.35325E0,8.661461E-1,1.5817165E0,2.4125252E0,1.235014E0,1.997324E0,3.240715E0,3.0470123E0,1.9555359E0,6.9538574E0,1.5502625E0,0E0,5.9644775E0,0E0,0E0,0E0,0E0,0E0,0E0,0E0,0E0,0E0,0E0,0E0,0E0,0E0,0E0,0E0,0E0,0E0,0E0,0E0,0E0,0E0,0E0,0E0,0E0,0E0,0E0,0E0,0E0,0E0,0E0,0E0,0E0,0E0,0E0,0E0,0E0,0E0,0E0,0E0,0E0,0E0,0E0,0E0,0E0,0E0,0E0,0E0,0E0,0E0,0E0,0E0,0E0,0E0,0E0,0E0,0E0,0E0,0E0,0E0,0E0,0E0,0E0],"parents":[2147483647,0,0,1,1,2,2,3,3,4,4,5,5,6,6,7,7,8,8,9,9,10,10,11,11,12,12,13,13,14,14,15,15,16,16,17,17,18,18,19,19,20,20,21,21,22,22,23,23,24,24,25,25,26,26,27,27,28,28,29,29,30,30,31,31,32,32,33,33,34,34,35,35,36,36,37,37,38,38,39,39,40,40,41,41,42,42,43,43,44,44,45,45,46,46,47,47,48,48,49,49,50,50,51,51,52,52,53,53,54,54,55,55,56,56,57,57,58,58,59,59,60,60,62,62],"right_children":[2,4,6,8,10,12,14,16,18,20,22,24,26,28,30,32,34,36,38,40,42,44,46,48,50,52,54,56,58,60,62,64,66,68,70,72,74,76,78,80,82,84,86,88,90,92,94,96,98,100,102,104,106,108,110,112,114,116,118,120,122,-1,124,-1,-1,-1,-1,-1,-1,-1,-1,-1,-1,-1,-1,-1,-1,-1,-1,-1,-1,-1,-1,-1,-1,-1,-1,-1,-1,-1,-1,-1,-1,-1,-1,-1,-1,-1,-1,-1,-1,-1,-1,-1,-1,-1,-1,-1,-1,-1,-1,-1,-1,-1,-1,-1,-1,-1,-1,-1,-1,-1,-1,-1,-1],"split_conditions":[8.11028E-1,4.7258863E-1,8.515969E-1,6.519988E-1,7.2627956E-1,6.087265E-1,6.7754906E-1,4.2630666E-1,7.512356E-1,5.745258E-1,6.502584E-1,4.7728065E-1,6.479103E-1,8.862341E-1,8.971555E-1,3.101816E-1,5.86622E-1,2.5599515E-1,3.3054593E-1,4.611779E-1,6.4342475E-1,3.544715E-1,7.858968E-1,6.354488E-1,8.3308816E-1,5.2198076E-1,6.958197E-1,5.8667946E-1,9.0818787E-1,7.6038456E-1,3.709402E-1,3.7470606E-1,6.615111E-1,5.2407765E-1,6.402185E-1,7.6883906E-1,3.9840922E-1,6.716963E-1,7.9304534E-1,2.504426E-1,3.406875E-1,6.2169397E-1,6.6320497E-1,7.6900494E-1,5.4313457E-1,2.1166544E-1,5.814276E-1,4.569562E-1,3.1305793E-1,8.0678064E-1,5.855615E-1,3.7096372E-1,7.309459E-1,2.5830308E-1,3.4238923E-1,6.076423E-1,3.4912926E-1,4.8680767E-1,9.1857E-1,8.781609E-1,6.928282E-1,1.2767091E0,7.305007E-1,-2.3731213E0,-1.4395295E-1,-1.2717049E0,-5.325476E-1,-1.1940678E0,-4.9404147E-1,1.4850871E-2,-8.172089E-1,-1.0475036E0,-1.7275544E-1,-6.8365806E-1,-5.3012145E-1,-6.3603973E-1,-1.6120148E-1,-3.9746878E-1,-2.7419114E-1,-1.2279968E0,-6.498105E-1,-6.332266E-1,-3.4851515E-1,-6.8092537E-1,-1.2322632E-1,5.6622624E-1,-1.19496465E-1,-3.767269E-1,-1.9901057E-1,-1.7462651E-1,7.218816E-2,-4.324933E-1,3.477727E-2,3.4310868E-1,1.2732239E-1,-2.9434205E-3,-2.1840195E-1,-1.9329835E-2,-9.3975835E-2,-6.3525684E-2,5.636719E-2,1.1439345E-2,1.2509644E-1,-1.4987183E-2,2.5921267E-1,-2.4862204E-2,1.00051254E-1,3.471722E-1,1.9147326E-1,3.5810854E-2,4.2067567E-1,2.1360002E-1,4.9239807E-2,1.0997029E-1,2.6954353E-1,2.4833681E-2,3.3927682E-1,4.1031384E-1,5.1715034E-1,3.4379312E-1,4.4185293E-1,4.7674862E-1,6.140488E-1,4.918671E-1,5.7588345E-1],"split_indices":[18,19,18,18,18,19,19,18,18,10,19,19,19,18,18,14,15,19,19,18,19,13,18,11,18,3,14,19,18,19,7,19,16,2,15,15,19,5,18,8,13,16,4,18,2,8,8,0,2,17,19,1,16,13,4,4,7,19,18,18,4,0,19,0,0,0,0,0,0,0,0,0,0,0,0,0,0,0,0,0,0,0,0,0,0,0,0,0,0,0,0,0,0,0,0,0,0,0,0,0,0,0,0,0,0,0,0,0,0,0,0,0,0,0,0,0,0,0,0,0,0,0,0,0,0],"split_type":[0,0,0,0,0,0,0,0,0,0,0,0,0,0,0,0,0,0,0,0,0,0,0,0,0,0,0,0,0,0,0,0,0,0,0,0,0,0,0,0,0,0,0,0,0,0,0,0,0,0,0,0,0,0,0,0,0,0,0,0,0,0,0,0,0,0,0,0,0,0,0,0,0,0,0,0,0,0,0,0,0,0,0,0,0,0,0,0,0,0,0,0,0,0,0,0,0,0,0,0,0,0,0,0,0,0,0,0,0,0,0,0,0,0,0,0,0,0,0,0,0,0,0,0,0],"sum_hessian":[3.212E3,1.543E3,1.669E3,6.51E2,8.92E2,3.13E2,1.356E3,9.7E1,5.54E2,2.95E2,5.97E2,1.6E2,1.53E2,4.55E2,9.01E2,2.6E1,7.1E1,2.96E2,2.58E2,2.59E2,3.6E1,4.83E2,1.14E2,2.9E1,1.31E2,6E1,9.3E1,1.49E2,3.06E2,4.22E2,4.79E2,9E0,1.7E1,5.4E1,1.7E1,3.1E1,2.65E2,1.8E1,2.4E2,4E1,2.19E2,2.3E1,1.3E1,2.2E2,2.63E2,8.4E1,3E1,1.9E1,1E1,9.1E1,4E1,1.5E1,4.5E1,7.9E1,1.4E1,2.9E1,1.2E2,1.36E2,1.7E2,3.31E2,9.1E1,2E0,4.77E2,8E0,1E0,1.3E1,4E0,4.5E1,9E0,8E0,9E0,3E1,1E0,1.67E2,9.8E1,1.7E1,1E0,1.8E2,6E1,1.1E1,2.9E1,6.5E1,1.54E2,4E0,1.9E1,9E0,4E0,1.21E2,9.9E1,2.25E2,3.8E1,4E0,8E1,2E1,1E1,1E0,1.8E1,2E0,8E0,7.2E1,1.9E1,2.6E1,1.4E1,1E0,1.4E1,1.2E1,3.3E1,1.2E1,6.7E1,1E0,1.3E1,1E1,1.9E1,1.5E1,1.05E2,3E0,1.33E2,1.28E2,4.2E1,1.43E2,1.88E2,5.2E1,3.9E1,2.05E2,2.72E2],"tree_param":{"num_deleted":"0","num_feature":"20","num_nodes":"125","size_leaf_vector":"1"}},{"base_weights":[-1.0289914E-2,-9.934079E-1,8.565637E-1,-1.3931938E0,-4.8843992E-1,1.0797226E-1,1.0251073E0,-2.1023285E0,-1.0699012E0,-1.0231359E0,-2.826279E-1,-1.973781E-1,3.5974756E-1,7.3042357E-1,1.1425428E0,-3.2911725E0,-1.813387E0,-1.6157064E0,-9.296655E-1,-3.7399178E0,-8.952854E-1,-4.0885934E-1,2.7312553E-1,-4.1074032E-1,-1.2442977E-1,5.501571E-1,1.4665094E-1,4.0213534E-1,8.73046E-1,1.0312663E0,1.3464642E0,-5.4618735E0,-2.747661E0,-3.3619425E0,-1.6875492E0,-1.184906E-1,-1.6335022E0,-1.0904752E0,-7.3244023E-1,-2.1387635E-1,-1.22115E0,-1.6363673E0,-4.9492338E-1,-6.5043545E-1,-1.8296508E-1,1.38429E-1,7.691795E-1,4.1439824E-2,-4.470897E-1,-1.9426498E-1,7.2509766E-2,6.8047297E-1,1.3528973E-1,8.174999E-2,6.1225283E-1,4.9190924E-1,1.19841546E-1,7.975385E-1,1.1232408E0,7.958442E-1,1.0987537E0,1.2935691E0,2.1085162E0,-2.1435547E0,-4.714325E-1,-1.0410837E0,-5.798988E-1,-1.3065732E0,-5.845196E-1,-8.342513E-1,-4.431059E-1,-5.4337794E-1,-4.2625493E-1,-3.6167547E-1,-2.25877E-1,-2.8593302E-1,-1.9848314E-1,-5.57314E-1,2.6979448E-2,-5.054575E-1,-9.102442E-2,-2.3400788E-1,2.0014955E-2,-1.2862797E-1,5.072506E-2,2.1846206E-1,-1.2924795E-2,5.2450564E-2,2.6090756E-1,-8.659859E-2,-1.6709146E-1,-8.579899E-2,-6.924544E-3,5.6289677E-2,-6.12498E-2,1.2626638E-1,2.5424552E-1,-2.7690126E-2,8.645718E-2,-4.8821345E-3,9.897549E-2,4.288025E-2,2.1351472E-1,1.8923455E-1,1.0089152E-1,1.001915E-1,-4.3885806E-3,1.7353927E-1,2.5840795E-1,3.4259355E-1,1.122223E-1,1.833743E-1,2.6861593E-1,3.0798677E-1,3.9879134E-1,2.2633871E-1,3.9140677E-1,9.8054355E-1,5.200821E-1],"categories":[],"categories_nodes":[],"categories_segments":[],"categories_sizes":[],"default_left":[0,0,0,0,0,0,0,0,0,0,0,0,0,0,0,0,0,0,0,0,0,0,0,0,0,0,0,0,0,0,0,0,0,0,0,0,0,0,0,0,0,0,0,0,0,0,0,0,0,0,0,0,0,0,0,0,0,0,0,0,0,0,0,0,0,0,0,0,0,0,0,0,0,0,0,0,0,0,0,0,0,0,0,0,0,0,0,0,0,0,0,0,0,0,0,0,0,0,0,0,0,0,0,0,0,0,0,0,0,0,0,0,0,0,0,0,0,0,0],"id":5,"left_children":[1,3,5,7,9,11,13,15,17,19,21,23,25,27,29,31,33,35,37,39,41,43,45,47,49,51,53,55,57,59,61,63,65,67,69,-1,71,73,75,-1,-1,77,79,81,83,85,87,-1,89,91,93,95,97,99,101,103,105,107,109,111,113,115,117,-1,-1,-1,-1,-1,-1,-1,-1,-1,-1,-1,-1,-1,-1,-1,-1,-1,-1,-1,-1,-1,-1,-1,-1,-1,-1,-1,-1,-1,-1,-1,-1,-1,-1,-1,-1,-1,-1,-1,-1,-1,-1,-1,-1,-1,-1,-1,-1,-1,-1,-1,-1,-1,-1,-1,-1],"loss_changes":[2.7390317E3,3.0334937E2,2.1538818E2,1.9032751E2,7.311211E1,2.4288105E1,4.7406616E1,8.403052E1,4.281543E1,6.0909973E1,3.399584E1,2.174603E0,6.938904E0,1.8377441E1,2.1189697E1,4.3982666E1,3.583319E1,1.8964844E0,1.3885681E1,5.1034164E0,5.2002914E1,2.1381828E1,5.907031E0,7.800007E-1,1.4994439E0,4.8277435E0,2.4580424E0,3.0581894E0,4.3560333E0,9.4210205E0,1.1299927E1,4.7710938E1,1.8016998E1,1.2575378E1,4.169635E1,0E0,1.773529E0,8.9227295E0,2.6673508E0,0E0,0E0,2.3857834E1,2.615108E1,1.7709938E1,1.7811499E1,7.739085E0,9.829874E-1,0E0,4.3110704E-1,1.2496324E0,9.620045E-1,2.6347198E0,8.269707E-1,1.8055218E0,3.650694E-1,1.7975159E0,8.975029E-1,2.5357513E0,4.4314575E-1,2.172226E0,6.966858E0,9.819946E-1,3.4662323E0,0E0,0E0,0E0,0E0,0E0,0E0,0E0,0E0,0E0,0E0,0E0,0E0,0E0,0E0,0E0,0E0,0E0,0E0,0E0,0E0,0E0,0E0,0E0,0E0,0E0,0E0,0E0,0E0,0E0,0E0,0E0,0E0,0E0,0E0,0E0,0E0,0E0,0E0,0E0,0E0,0E0,0E0,0E0,0E0,0E0,0E0,0E0,0E0,0E0,0E0,0E0,0E0,0E0,0E0,0E0,0E0],"parents":[2147483647,0,0,1,1,2,2,3,3,4,4,5,5,6,6,7,7,8,8,9,9,10,10,11,11,12,12,13,13,14,14,15,15,16,16,17,17,18,18,19,19,20,20,21,21,22,22,23,23,24,24,25,25,26,26,27,27,28,28,29,29,30,30,31,31,32,32,33,33,34,34,36,36,37,37,38,38,41,41,42,42,43,43,44,44,45,45,46,46,48,48,49,49,50,50,51,51,52,52,53,53,54,54,55,55,56,56,57,57,58,58,59,59,60,60,61,61,62,62],"right_children":[2,4,6,8,10,12,14,16,18,20,22,24,26,28,30,32,34,36,38,40,42,44,46,48,50,52,54,56,58,60,62,64,66,68,70,-1,72,74,76,-1,-1,78,80,82,84,86,88,-1,90,92,94,96,98,100,102,104,106,108,110,112,114,116,118,-1,-1,-1,-1,-1,-1,-1,-1,-1,-1,-1,-1,-1,-1,-1,-1,-1,-1,-1,-1,-1,-1,-1,-1,-1,-1,-1,-1,-1,-1,-1,-1,-1,-1,-1,-1,-1,-1,-1,-1,-1,-1,-1,-1,-1,-1,-1,-1,-1,-1,-1,-1,-1,-1,-1,-1],"split_conditions":[8.069344E-1,5.233832E-1,8.459617E-1,7.1125007E-1,7.130955E-1,5.79268E-1,6.665223E-1,4.4876775E-1,3.5243523E-1,4.2091328E-1,6.5845513E-1,4.6884084E-1,6.0351634E-1,8.8254505E-1,9.0648466E-1,2.0314947E-1,3.6394033E-1,1.6841346E-1,7.6812416E-1,1.3900174E-1,2.8422165E-1,6.8427354E-1,7.8995997E-1,3.597934E-1,7.1603835E-1,5.472731E-1,6.279036E-1,6.720031E-1,9.155145E-1,6.978357E-1,9.242687E-1,7.485659E-1,2.1225373E-1,5.0085795E-1,3.2307258E-1,-1.184906E-1,3.0556643E-1,6.61342E-1,4.024636E-1,-2.1387635E-1,-1.22115E0,7.356765E-1,3.8067174E-1,5.357285E-1,4.330464E-1,3.46994E-1,3.9737684E-1,4.1439824E-2,3.745722E-1,5.5280507E-1,7.253995E-1,5.2806765E-1,7.8144544E-1,9.07837E-1,6.096511E-1,7.408931E-1,6.580773E-1,5.890859E-1,7.788895E-1,8.685309E-1,7.5924635E-1,4.896977E-1,5.2500397E-1,-2.1435547E0,-4.714325E-1,-1.0410837E0,-5.798988E-1,-1.3065732E0,-5.845196E-1,-8.342513E-1,-4.431059E-1,-5.4337794E-1,-4.2625493E-1,-3.6167547E-1,-2.25877E-1,-2.8593302E-1,-1.9848314E-1,-5.57314E-1,2.6979448E-2,-5.054575E-1,-9.102442E-2,-2.3400788E-1,2.0014955E-2,-1.2862797E-1,5.072506E-2,2.1846206E-1,-1.2924795E-2,5.2450564E-2,2.6090756E-1,-8.659859E-2,-1.6709146E-1,-8.579899E-2,-6.924544E-3,5.6289677E-2,-6.12498E-2,1.2626638E-1,2.5424552E-1,-2.7690126E-2,8.645718E-2,-4.8821345E-3,9.897549E-2,4.288025E-2,2.1351472E-1,1.8923455E-1,1.0089152E-1,1.001915E-1,-4.3885806E-3,1.7353927E-1,2.5840795E-1,3.4259355E-1,1.122223E-1,1.833743E-1,2.6861593E-1,3.0798677E-1,3.9879134E-1,2.2633871E-1,3.9140677E-1,9.8054355E-1,5.200821E-1],"split_indices":[18,19,18,18,18,19,19,18,19,17,19,19,3,18,18,13,5,10,18,9,8,17,18,19,4,8,7,5,18,9,18,16,7,1,19,0,19,5,19,0,0,5,14,2,1,3,14,0,1,19,5,13,17,15,19,9,17,19,6,18,19,4,0,0,0,0,0,0,0,0,0,0,0,0,0,0,0,0,0,0,0,0,0,0,0,0,0,0,0,0,0,0,0,0,0,0,0,0,0,0,0,0,0,0,0,0,0,0,0,0,0,0,0,0,0,0,0,0,0],"split_type":[0,0,0,0,0,0,0,0,0,0,0,0,0,0,0,0,0,0,0,0,0,0,0,0,0,0,0,0,0,0,0,0,0,0,0,0,0,0,0,0,0,0,0,0,0,0,0,0,0,0,0,0,0,0,0,0,0,0,0,0,0,0,0,0,0,0,0,0,0,0,0,0,0,0,0,0,0,0,0,0,0,0,0,0,0,0,0,0,0,0,0,0,0,0,0,0,0,0,0,0,0,0,0,0,0,0,0,0,0,0,0,0,0,0,0,0,0,0,0],"sum_hessian":[3.212E3,1.505E3,1.707E3,8.39E2,6.66E2,3.14E2,1.393E3,2.61E2,5.78E2,1.84E2,4.82E2,1.42E2,1.72E2,3.99E2,9.94E2,4.9E1,2.12E2,1.16E2,4.62E2,7E0,1.77E2,3.93E2,8.9E1,3.5E1,1.07E2,9E1,8.2E1,1.22E2,2.77E2,6.47E2,3.47E2,8E0,4.1E1,1.4E1,1.98E2,2E0,1.14E2,2.52E2,2.1E2,1E0,6E0,6.1E1,1.16E2,1.89E2,2.04E2,7.1E1,1.8E1,2E0,3.3E1,7.9E1,2.8E1,6.8E1,2.2E1,7.3E1,9E0,9.2E1,3E1,2.16E2,6.1E1,1.47E2,5E2,3.27E2,2E1,5E0,3E0,2E1,2.1E1,7E0,7E0,3E1,1.68E2,5.8E1,5.6E1,1.86E2,6.6E1,4.8E1,1.62E2,5.4E1,7E0,1.5E1,1.01E2,1.6E2,2.9E1,1.2E2,8.4E1,1.6E1,5.5E1,3E0,1.5E1,1.5E1,1.8E1,5.1E1,2.8E1,2E1,8E0,2.8E1,4E1,9E0,1.3E1,5.3E1,2E1,2E0,7E0,4.7E1,4.5E1,1.1E1,1.9E1,5.1E1,1.65E2,5.9E1,2E0,5.4E1,9.3E1,3.85E2,1.15E2,8E0,3.19E2,3E0,1.7E1],"tree_param":{"num_deleted":"0","num_feature":"20","num_nodes":"119","size_leaf_vector":"1"}},{"base_weights":[-9.342378E-3,-7.326857E-1,5.800386E-1,-1.8119795E0,-6.2805164E-1,3.6149323E-2,7.1493137E-1,-3.3881097E0,-1.6180519E0,-1.0492284E0,-4.365062E-1,-8.270491E-2,4.1186273E-1,5.01497E-1,8.0265427E-1,-7.972005E-1,-4.907778E0,-2.6491344E0,-1.3314865E0,-1.4180973E0,-8.203504E-1,-6.013175E-1,-1.6502336E-1,-2.2897723E-1,6.418005E-2,5.5518126E-1,2.0136854E-1,2.3639639E-1,5.995827E-1,7.7892685E-1,1.340961E0,-2.9945984E-1,3.116913E-2,-1.7321392E0,1.731537E-1,-3.416371E0,-6.8761444E-1,-1.6690052E0,-5.0040764E-1,-2.1178014E0,-1.2683996E0,-1.1388373E0,-7.355618E-1,-1.0496023E0,-5.094274E-1,-7.600243E-1,-2.6308767E-2,-4.329748E-1,-1.4459701E-1,6.2962053E-3,5.2683103E-1,2.3528205E-1,7.1284807E-1,-9.9099964E-2,3.5573196E-1,1.5459025E-1,3.83873E-1,1.2788472E-1,6.2892544E-1,6.118233E-1,8.2986134E-1,8.252625E-1,1.1981225E0,-1.1606534E0,-2.9358673E-1,-1.4337159E-2,-2.6787722E-1,1.1071342E-1,-5.6475586E-1,-2.902405E-1,1.7793173E-1,-6.5901786E-1,-2.1702576E-2,-5.0841576E-1,-3.440084E-1,-9.448243E-2,-3.4964836E-1,-9.8831885E-2,-2.3704123E-1,-7.1923274E-1,-2.1753177E-1,-2.3776767E-1,-1.1068126E-1,-3.047409E-1,1.3629456E-1,-1.0764026E-1,6.980896E-2,-4.6776734E-2,-1.7456616E-1,-4.9517274E-2,1.1171265E-1,-3.5313055E-2,4.1580923E-2,2.5636075E-2,2.4347638E-1,1.1289063E-1,-1.2023491E-2,2.992107E-1,1.4341234E-1,-1.5400635E-1,4.2615764E-2,5.5721812E-2,1.5307389E-1,1.8780082E-2,9.474284E-2,1.0403443E-2,1.2983015E-1,-6.521759E-2,6.186333E-2,1.7809233E-1,2.759791E-1,1.6386943E-1,3.1360382E-1,2.2660126E-1,2.7577782E-1,3.6735386E-1,1.4197999E-1],"categories":[],"categories_nodes":[],"categories_segments":[],"categories_sizes":[],"default_left":[0,0,0,0,0,0,0,0,0,0,0,0,0,0,0,0,0,0,0,0,0,0,0,0,0,0,0,0,0,0,0,0,0,0,0,0,0,0,0,0,0,0,0,0,0,0,0,0,0,0,0,0,0,0,0,0,0,0,0,0,0,0,0,0,0,0,0,0,0,0,0,0,0,0,0,0,0,0,0,0,0,0,0,0,0,0,0,0,0,0,0,0,0,0,0,0,0,0,0,0,0,0,0,0,0,0,0,0,0,0,0,0,0,0,0,0,0],"id":6,"left_children":[1,3,5,7,9,11,13,15,17,19,21,23,25,27,29,31,33,35,37,39,41,43,45,47,49,51,53,55,57,59,61,-1,-1,-1,-1,63,65,67,69,71,73,75,77,79,81,83,85,87,89,91,93,95,97,99,101,103,105,107,109,111,113,-1,115,-1,-1,-1,-1,-1,-1,-1,-1,-1,-1,-1,-1,-1,-1,-1,-1,-1,-1,-1,-1,-1,-1,-1,-1,-1,-1,-1,-1,-1,-1,-1,-1,-1,-1,-1,-1,-1,-1,-1,-1,-1,-1,-1,-1,-1,-1,-1,-1,-1,-1,-1,-1,-1,-1],"loss_changes":[1.3702064E3,1.6182123E2,1.2990668E2,3.333606E1,1.05790344E2,1.5797322E1,2.6165527E1,4.7272705E1,3.0452057E1,3.3535706E1,4.0483078E1,5.7942157E0,2.4524593E0,1.0675339E1,1.1779114E1,1.190428E0,4.133316E1,3.3769653E1,2.4971237E1,1.365387E1,6.075363E0,2.2698135E1,2.8372152E1,2.2611966E0,3.6119852E0,2.3541527E0,1.7049816E0,1.3160086E0,4.113365E0,7.6972656E0,4.961113E0,0E0,0E0,0E0,0E0,1.4965134E1,1.0082226E0,2.897966E1,1.487445E1,4.03846E0,4.8536377E0,7.7498627E-1,4.2834015E0,3.981169E1,1.840284E1,2.0650635E1,2.4196312E1,1.5182757E0,1.0874856E0,2.0015495E0,1.8159256E0,7.1404546E-1,1.7278652E0,1.3716041E0,5.3561807E-1,1.0925219E0,6.679363E-1,5.586698E-1,2.3802414E0,5.9407578E0,4.2091064E0,0E0,1.6651917E-1,0E0,0E0,0E0,0E0,0E0,0E0,0E0,0E0,0E0,0E0,0E0,0E0,0E0,0E0,0E0,0E0,0E0,0E0,0E0,0E0,0E0,0E0,0E0,0E0,0E0,0E0,0E0,0E0,0E0,0E0,0E0,0E0,0E0,0E0,0E0,0E0,0E0,0E0,0E0,0E0,0E0,0E0,0E0,0E0,0E0,0E0,0E0,0E0,0E0,0E0,0E0,0E0,0E0,0E0],"parents":[2147483647,0,0,1,1,2,2,3,3,4,4,5,5,6,6,7,7,8,8,9,9,10,10,11,11,12,12,13,13,14,14,15,15,16,16,17,17,18,18,19,19,20,20,21,21,22,22,23,23,24,24,25,25,26,26,27,27,28,28,29,29,30,30,35,35,36,36,37,37,38,38,39,39,40,40,41,41,42,42,43,43,44,44,45,45,46,46,47,47,48,48,49,49,50,50,51,51,52,52,53,53,54,54,55,55,56,56,57,57,58,58,59,59,60,60,62,62],"right_children":[2,4,6,8,10,12,14,16,18,20,22,24,26,28,30,32,34,36,38,40,42,44,46,48,50,52,54,56,58,60,62,-1,-1,-1,-1,64,66,68,70,72,74,76,78,80,82,84,86,88,90,92,94,96,98,100,102,104,106,108,110,112,114,-1,116,-1,-1,-1,-1,-1,-1,-1,-1,-1,-1,-1,-1,-1,-1,-1,-1,-1,-1,-1,-1,-1,-1,-1,-1,-1,-1,-1,-1,-1,-1,-1,-1,-1,-1,-1,-1,-1,-1,-1,-1,-1,-1,-1,-1,-1,-1,-1,-1,-1,-1,-1,-1,-1,-1],"split_conditions":[8.020823E-1,4.7084424E-1,8.421163E-1,3.3054593E-1,4.3167508E-1,6.405734E-1,6.665223E-1,1.6998287E-1,3.1821832E-1,7.2627956E-1,5.9227186E-1,5.5280507E-1,7.331851E-1,8.7484133E-1,9.2210364E-1,6.939692E-1,7.485659E-1,7.485591E-1,4.53614E-1,2.7149802E-1,3.1359726E-1,1.7277414E-1,2.6404667E-1,5.4835856E-1,5.167659E-1,5.174215E-1,1E0,5.5756414E-1,5.365311E-1,8.781609E-1,5.050807E-1,-2.9945984E-1,3.116913E-2,-1.7321392E0,1.731537E-1,5.850123E-1,3.7257123E-1,3.4640336E-1,7.175356E-1,7.6883906E-1,2.851664E-1,1.5122934E-1,4.2091328E-1,6.7945844E-1,2.8663847E-1,7.7250457E-1,6.814952E-1,3.1890595E-1,6.262506E-1,7.309459E-1,1E0,6.73785E-1,8.2232624E-1,8.069815E-1,7.4172723E-1,6.7470235E-1,4.072648E-1,4.8478997E-1,9.196666E-1,7.511169E-1,7.379112E-1,8.252625E-1,6.371554E-1,-1.1606534E0,-2.9358673E-1,-1.4337159E-2,-2.6787722E-1,1.1071342E-1,-5.6475586E-1,-2.902405E-1,1.7793173E-1,-6.5901786E-1,-2.1702576E-2,-5.0841576E-1,-3.440084E-1,-9.448243E-2,-3.4964836E-1,-9.8831885E-2,-2.3704123E-1,-7.1923274E-1,-2.1753177E-1,-2.3776767E-1,-1.1068126E-1,-3.047409E-1,1.3629456E-1,-1.0764026E-1,6.980896E-2,-4.6776734E-2,-1.7456616E-1,-4.9517274E-2,1.1171265E-1,-3.5313055E-2,4.1580923E-2,2.5636075E-2,2.4347638E-1,1.1289063E-1,-1.2023491E-2,2.992107E-1,1.4341234E-1,-1.5400635E-1,4.2615764E-2,5.5721812E-2,1.5307389E-1,1.8780082E-2,9.474284E-2,1.0403443E-2,1.2983015E-1,-6.521759E-2,6.186333E-2,1.7809233E-1,2.759791E-1,1.6386943E-1,3.1360382E-1,2.2660126E-1,2.7577782E-1,3.6735386E-1,1.4197999E-1],"split_indices":[18,18,18,19,19,19,19,7,15,18,19,19,11,18,18,0,16,0,18,19,19,7,2,10,1,14,12,13,19,18,6,0,0,0,0,13,19,15,16,15,10,6,17,18,13,18,17,6,7,16,12,0,18,17,15,3,16,19,18,4,19,0,13,0,0,0,0,0,0,0,0,0,0,0,0,0,0,0,0,0,0,0,0,0,0,0,0,0,0,0,0,0,0,0,0,0,0,0,0,0,0,0,0,0,0,0,0,0,0,0,0,0,0,0,0,0,0],"split_type":[0,0,0,0,0,0,0,0,0,0,0,0,0,0,0,0,0,0,0,0,0,0,0,0,0,0,0,0,0,0,0,0,0,0,0,0,0,0,0,0,0,0,0,0,0,0,0,0,0,0,0,0,0,0,0,0,0,0,0,0,0,0,0,0,0,0,0,0,0,0,0,0,0,0,0,0,0,0,0,0,0,0,0,0,0,0,0,0,0,0,0,0,0,0,0,0,0,0,0,0,0,0,0,0,0,0,0,0,0,0,0,0,0,0,0,0,0],"sum_hessian":[3.212E3,1.442E3,1.77E3,1.26E2,1.316E3,3.52E2,1.418E3,1.2E1,1.14E2,4.1E2,9.06E2,2.68E2,8.4E1,4.15E2,1.003E3,5E0,7E0,2.3E1,9.1E1,1.55E2,2.55E2,5.63E2,3.43E2,1.34E2,1.34E2,4.9E1,3.5E1,1.13E2,3.02E2,9.63E2,4E1,4E0,1E0,6E0,1E0,1.6E1,7E0,6.4E1,2.7E1,2.5E1,1.3E2,5.1E1,2.04E2,9.4E1,4.69E2,6.4E1,2.79E2,3.8E1,9.6E1,1.2E2,1.4E1,1.7E1,3.2E1,1.2E1,2.3E1,7.4E1,3.9E1,1.8E1,2.84E2,2.28E2,7.35E2,2E0,3.8E1,1.3E1,3E0,2E0,5E0,6E0,5.8E1,1.9E1,8E0,2.4E1,1E0,2.6E1,1.04E2,2E0,4.9E1,2.5E1,1.79E2,1.7E1,7.7E1,1.54E2,3.15E2,5.3E1,1.1E1,1.22E2,1.57E2,1.4E1,2.4E1,9.3E1,3E0,6.2E1,5.8E1,6E0,8E0,1.1E1,6E0,1.3E1,1.9E1,4E0,8E0,1.2E1,1.1E1,4.8E1,2.6E1,5E0,3.4E1,3E0,1.5E1,2.56E2,2.8E1,2E2,2.8E1,4.06E2,3.29E2,3.6E1,2E0],"tree_param":{"num_deleted":"0","num_feature":"20","num_nodes":"117","size_leaf_vector":"1"}},{"base_weights":[-7.835305E-3,-5.226362E-1,4.0533793E-1,-1.3009024E0,-4.4649637E-1,2.6191022E-2,5.025777E-1,-2.6550293E-3,-1.4617237E0,-6.6693074E-1,-2.538451E-1,-1.4370613E-1,1.5802284E-1,4.216841E-1,6.315307E-1,6.1267644E-1,-1.3558533E0,-2.0052643E0,-9.481751E-1,-1.3785236E0,-6.197352E-1,-1.1933955E0,-1.9944756E-1,-2.7365503E-1,-8.887013E-2,1.16568856E-1,4.827841E-1,3.4486598E-1,5.648363E-1,5.8930504E-1,9.9700814E-1,-1.4011231E-1,1.0628575E0,-5.446396E-1,-6.901062E-1,-3.366509E0,-1.3435163E0,6.5223694E-1,-1.1718565E0,-3.4957886E-2,-1.4473083E0,-7.2657216E-1,-4.0111262E-1,-1.3475647E0,4.5393372E-1,-1.1998876E0,-1.6150084E-1,-3.7234774E-1,-1.796206E-1,-1.1295863E-1,1.7294617E-1,6.259647E-2,3.3671653E-1,1.347351E-1,6.96906E-1,2.0861654E-1,3.9236608E-1,6.1160576E-1,4.2148376E-1,5.537698E-1,8.0974E-1,6.21476E-1,8.9517504E-1,3.01178E-2,-1.0017396E-1,4.3926087E-1,1.1873932E-1,-4.027863E-2,-1.9100343E-1,-1.207998E0,3.1692508E-1,-1.0892945E-1,-5.7008934E-1,4.2511597E-1,-2.7019044E-2,-6.8218756E-1,-2.2704735E-1,-5.808571E-1,-3.4276888E-1,-2.6487374E-1,-1.7765664E-1,-1.258043E-1,6.8395995E-2,-4.5675948E-1,1.167183E-1,-8.456421E-3,2.8504488E-1,-6.1409813E-1,-1.9451924E-1,4.7440242E-2,-8.064674E-2,-2.1502078E-2,-1.3055472E-1,4.305725E-2,-6.375885E-2,-4.0676974E-2,6.697475E-2,-1.7735597E-2,1.0125275E-1,3.0861458E-2,-7.086945E-2,1.522218E-1,-1.4083863E-2,7.261391E-2,-5.8901977E-2,1.0546483E-1,2.735939E-1,7.633464E-3,7.404549E-2,1.08200274E-1,1.675085E-1,2.2684897E-1,1.627011E-1,1.0761187E-1,1.7243958E-1,1.4354031E-1,2.0590921E-1,2.5114417E-1,-1.3458253E-2,2.8164294E-1,4.1056827E-2],"categories":[],"categories_nodes":[],"categories_segments":[],"categories_sizes":[],"default_left":[0,0,0,0,0,0,0,0,0,0,0,0,0,0,0,0,0,0,0,0,0,0,0,0,0,0,0,0,0,0,0,0,0,0,0,0,0,0,0,0,0,0,0,0,0,0,0,0,0,0,0,0,0,0,0,0,0,0,0,0,0,0,0,0,0,0,0,0,0,0,0,0,0,0,0,0,0,0,0,0,0,0,0,0,0,0,0,0,0,0,0,0,0,0,0,0,0,0,0,0,0,0,0,0,0,0,0,0,0,0,0,0,0,0,0,0,0,0,0,0,0],"id":7,"left_children":[1,3,5,7,9,11,13,15,17,19,21,23,25,27,29,31,33,35,37,39,41,43,45,47,49,51,53,55,57,59,61,63,65,67,-1,69,71,73,75,-1,77,79,81,83,85,87,89,91,93,95,97,99,101,103,105,107,109,111,113,115,117,-1,119,-1,-1,-1,-1,-1,-1,-1,-1,-1,-1,-1,-1,-1,-1,-1,-1,-1,-1,-1,-1,-1,-1,-1,-1,-1,-1,-1,-1,-1,-1,-1,-1,-1,-1,-1,-1,-1,-1,-1,-1,-1,-1,-1,-1,-1,-1,-1,-1,-1,-1,-1,-1,-1,-1,-1,-1,-1,-1],"loss_changes":[6.8362317E2,8.421594E1,6.572278E1,2.6511917E1,5.525009E1,8.197925E0,1.453595E1,1.3320682E1,2.9640884E1,1.9564758E1,3.5436214E1,1.1158206E0,2.7170277E0,9.427292E0,7.823181E0,3.8767228E0,2.5780954E0,4.412027E1,2.2243286E1,3.0431824E0,1.3068756E1,1.0262463E1,2.490004E1,3.69303E-1,7.385066E-1,2.165192E0,1.6201754E0,3.6200485E0,1.7803955E0,3.3976898E0,4.164089E0,2.6657277E-1,1.2945213E0,6.5600276E-2,0E0,5.389044E1,2.0053406E1,4.6694126E0,2.2521614E1,0E0,3.0022354E0,7.5238037E0,2.275219E0,1.1227177E1,9.8372877E-1,9.884834E0,2.1928297E1,3.8444924E-1,3.06996E-1,8.291956E-1,4.0184584E-1,1.8175626E0,2.3813596E0,4.0280414E-1,7.1927357E-1,1.0433412E0,2.0243683E0,1.8629227E0,5.4454327E-1,3.925064E0,1.5834236E0,0E0,1.5921478E0,0E0,0E0,0E0,0E0,0E0,0E0,0E0,0E0,0E0,0E0,0E0,0E0,0E0,0E0,0E0,0E0,0E0,0E0,0E0,0E0,0E0,0E0,0E0,0E0,0E0,0E0,0E0,0E0,0E0,0E0,0E0,0E0,0E0,0E0,0E0,0E0,0E0,0E0,0E0,0E0,0E0,0E0,0E0,0E0,0E0,0E0,0E0,0E0,0E0,0E0,0E0,0E0,0E0,0E0,0E0,0E0,0E0,0E0],"parents":[2147483647,0,0,1,1,2,2,3,3,4,4,5,5,6,6,7,7,8,8,9,9,10,10,11,11,12,12,13,13,14,14,15,15,16,16,17,17,18,18,19,19,20,20,21,21,22,22,23,23,24,24,25,25,26,26,27,27,28,28,29,29,30,30,31,31,32,32,33,33,35,35,36,36,37,37,38,38,40,40,41,41,42,42,43,43,44,44,45,45,46,46,47,47,48,48,49,49,50,50,51,51,52,52,53,53,54,54,55,55,56,56,57,57,58,58,59,59,60,60,62,62],"right_children":[2,4,6,8,10,12,14,16,18,20,22,24,26,28,30,32,34,36,38,40,42,44,46,48,50,52,54,56,58,60,62,64,66,68,-1,70,72,74,76,-1,78,80,82,84,86,88,90,92,94,96,98,100,102,104,106,108,110,112,114,116,118,-1,120,-1,-1,-1,-1,-1,-1,-1,-1,-1,-1,-1,-1,-1,-1,-1,-1,-1,-1,-1,-1,-1,-1,-1,-1,-1,-1,-1,-1,-1,-1,-1,-1,-1,-1,-1,-1,-1,-1,-1,-1,-1,-1,-1,-1,-1,-1,-1,-1,-1,-1,-1,-1,-1,-1,-1,-1,-1,-1],"split_conditions":[8.00999E-1,4.7084424E-1,8.421163E-1,4.9101272E-1,4.8933607E-1,5.6076396E-1,7.2518677E-1,7.338095E-1,6.4984804E-1,2.5599515E-1,4.2091328E-1,4.634948E-1,6.7962706E-1,9.0745026E-1,7.676396E-1,3.9144433E-1,2.346052E-1,4.024636E-1,6.610315E-1,1.06060565E-1,7.650872E-1,6.7453414E-1,1.3034488E-1,4.1735065E-1,7.8040665E-1,4.8210838E-1,3.0084035E-1,6.3097143E-1,9.602357E-1,7.810856E-1,4.4521943E-1,2.8009844E-1,2.5483543E-1,3.0090412E-1,-6.901062E-1,7.164003E-1,3.3939844E-1,1E0,3.0013904E-1,-3.4957886E-2,7.0428383E-1,2.4039198E-1,7.699907E-1,9.2808026E-1,7.510629E-1,6.9691616E-1,4.5692885E-1,2.4926962E-1,3.597934E-1,6.244033E-1,2.2541712E-1,6.805317E-1,4.8204398E-1,8.286836E-1,3.8083398E-1,5.365311E-1,8.733307E-1,4.0612808E-1,9.196666E-1,9.059335E-1,8.932994E-1,6.21476E-1,7.670813E-1,3.01178E-2,-1.0017396E-1,4.3926087E-1,1.1873932E-1,-4.027863E-2,-1.9100343E-1,-1.207998E0,3.1692508E-1,-1.0892945E-1,-5.7008934E-1,4.2511597E-1,-2.7019044E-2,-6.8218756E-1,-2.2704735E-1,-5.808571E-1,-3.4276888E-1,-2.6487374E-1,-1.7765664E-1,-1.258043E-1,6.8395995E-2,-4.5675948E-1,1.167183E-1,-8.456421E-3,2.8504488E-1,-6.1409813E-1,-1.9451924E-1,4.7440242E-2,-8.064674E-2,-2.1502078E-2,-1.3055472E-1,4.305725E-2,-6.375885E-2,-4.0676974E-2,6.697475E-2,-1.7735597E-2,1.0125275E-1,3.0861458E-2,-7.086945E-2,1.522218E-1,-1.4083863E-2,7.261391E-2,-5.8901977E-2,1.0546483E-1,2.735939E-1,7.633464E-3,7.404549E-2,1.08200274E-1,1.675085E-1,2.2684897E-1,1.627011E-1,1.0761187E-1,1.7243958E-1,1.4354031E-1,2.0590921E-1,2.5114417E-1,-1.3458253E-2,2.8164294E-1,4.1056827E-2],"split_indices":[18,18,18,0,19,19,19,5,0,19,17,19,13,18,4,19,1,19,0,7,18,19,2,8,3,1,15,19,15,19,8,2,1,0,0,5,14,12,13,0,18,7,5,0,0,18,3,2,19,7,13,0,8,18,8,19,9,13,18,18,9,0,6,0,0,0,0,0,0,0,0,0,0,0,0,0,0,0,0,0,0,0,0,0,0,0,0,0,0,0,0,0,0,0,0,0,0,0,0,0,0,0,0,0,0,0,0,0,0,0,0,0,0,0,0,0,0,0,0,0,0],"split_type":[0,0,0,0,0,0,0,0,0,0,0,0,0,0,0,0,0,0,0,0,0,0,0,0,0,0,0,0,0,0,0,0,0,0,0,0,0,0,0,0,0,0,0,0,0,0,0,0,0,0,0,0,0,0,0,0,0,0,0,0,0,0,0,0,0,0,0,0,0,0,0,0,0,0,0,0,0,0,0,0,0,0,0,0,0,0,0,0,0,0,0,0,0,0,0,0,0,0,0,0,0,0,0,0,0,0,0,0,0,0,0,0,0,0,0,0,0,0,0,0,0],"sum_hessian":[3.212E3,1.43E3,1.782E3,1.26E2,1.304E3,3.64E2,1.418E3,1.4E1,1.12E2,6.07E2,6.97E2,1.59E2,2.05E2,8.74E2,5.44E2,1E1,4E0,5.3E1,5.9E1,3.6E1,5.71E2,3.7E1,6.6E2,4.6E1,1.13E2,1.83E2,2.2E1,5.71E2,3.03E2,4.9E2,5.4E1,4E0,6E0,3E0,1E0,1.6E1,3.7E1,7E0,5.2E1,2E0,3.4E1,3.82E2,1.89E2,3.4E1,3E0,2.3E1,6.37E2,2.1E1,2.5E1,1.04E2,9E0,1.48E2,3.5E1,9E0,1.3E1,1.49E2,4.22E2,2.26E2,7.7E1,4.25E2,6.5E1,3E0,5.1E1,2E0,2E0,3E0,3E0,1E0,2E0,1.4E1,2E0,1.4E1,2.3E1,3E0,4E0,1.3E1,3.9E1,1.1E1,2.3E1,1.74E2,2.08E2,1.84E2,5E0,3.1E1,3E0,2E0,1E0,8E0,1.5E1,1.6E2,4.77E2,4E0,1.7E1,2E0,2.3E1,9.8E1,6E0,4E0,5E0,1.31E2,1.7E1,2.4E1,1.1E1,7E0,2E0,6E0,7E0,2.6E1,1.23E2,3.57E2,6.5E1,7E1,1.56E2,5.7E1,2E1,2.74E2,1.51E2,6.3E1,2E0,4.8E1,3E0],"tree_param":{"num_deleted":"0","num_feature":"20","num_nodes":"121","size_leaf_vector":"1"}},{"base_weights":[-6.075249E-3,-3.692568E-1,2.8541037E-1,-6.8499357E-1,-2.5072837E-1,1.13114E-1,3.9407587E-1,-8.167533E-1,-7.099522E-2,-3.8627023E-1,-2.7736384E-2,-2.032862E-2,2.501382E-1,3.7849468E-1,7.9478836E-1,-1.9964322E0,-7.2752106E-1,-6.241446E-1,4.39223E-1,-5.709557E-1,-2.8050366E-1,-9.261822E-2,4.4323477E-1,-3.299836E-2,3.7428144E-1,2.0669101E-1,5.1751643E-1,2.6576096E-1,4.1194537E-1,5.359131E-1,6.9558954E-1,-3.5324097E0,-1.1996651E0,-1.3293957E0,-5.899982E-1,-1.7912838E-1,-2.315046E0,-7.9305895E-2,1.2050191E0,-8.8339555E-1,-4.4629696E-1,7.577087E-1,-2.9248062E-1,-2.3616013E-1,1.2490998E-1,9.085286E-1,2.2492173E-1,-5.4001916E-2,2.2354478E-1,2.2326417E-1,5.657523E-2,1.721103E-1,4.4316968E-1,-1.2756856E-1,5.9734964E-1,-7.117844E-2,2.7601308E-1,4.2162386E-1,1.36422E-1,7.1171993E-1,8.104859E-2,-1.9147949E-1,-1.3687245E0,-2.2171915E-1,-8.847748E-1,-5.7288086E-1,-2.7446032E-1,-1.9812207E-1,1.1918873E-1,-3.6580536E-1,1.1333554E-1,-2.4595337E-1,-8.247473E-1,2.3788239E-1,-2.0900248E-1,4.4892815E-1,-1.3782655E-1,-8.999176E-2,-2.7192485E-1,-2.6341632E-1,-1.2327139E-1,2.5962068E-2,5.163574E-1,-2.4393262E-1,-8.036725E-2,-2.0674361E-1,-3.147036E-2,-6.4117156E-2,1.2757404E-1,-6.651916E-2,3.2984126E-1,-2.798427E-1,1.5189645E-1,4.8281316E-2,-2.23919E-2,1.7122559E-1,4.0341884E-2,-9.148407E-2,5.029602E-2,6.8129115E-2,6.120562E-3,1.7885554E-1,-2.9736329E-2,6.624756E-2,-7.242371E-2,9.9860884E-2,2.2419117E-1,-7.7433474E-2,5.408478E-2,7.790956E-2,1.4155991E-1,1.2274476E-1,1.9473314E-1,-9.731873E-2,1.0800293E-1,2.1608983E-1,6.17157E-2],"categories":[],"categories_nodes":[],"categories_segments":[],"categories_sizes":[],"default_left":[0,0,0,0,0,0,0,0,0,0,0,0,0,0,0,0,0,0,0,0,0,0,0,0,0,0,0,0,0,0,0,0,0,0,0,0,0,0,0,0,0,0,0,0,0,0,0,0,0,0,0,0,0,0,0,0,0,0,0,0,0,0,0,0,0,0,0,0,0,0,0,0,0,0,0,0,0,0,0,0,0,0,0,0,0,0,0,0,0,0,0,0,0,0,0,0,0,0,0,0,0,0,0,0,0,0,0,0,0,0,0,0,0,0,0,0,0],"id":8,"left_children":[1,3,5,7,9,11,13,15,17,19,21,23,25,27,29,31,33,35,37,39,41,43,45,47,49,51,53,55,57,-1,59,61,63,65,67,69,71,73,75,77,79,81,83,85,87,89,91,93,95,-1,97,99,101,103,105,107,109,111,113,115,-1,-1,-1,-1,-1,-1,-1,-1,-1,-1,-1,-1,-1,-1,-1,-1,-1,-1,-1,-1,-1,-1,-1,-1,-1,-1,-1,-1,-1,-1,-1,-1,-1,-1,-1,-1,-1,-1,-1,-1,-1,-1,-1,-1,-1,-1,-1,-1,-1,-1,-1,-1,-1,-1,-1,-1,-1],"loss_changes":[3.4024063E2,5.3381653E1,3.333795E1,3.1493134E1,3.1483475E1,1.2639929E1,6.523407E0,3.233777E1,2.0030022E1,1.24975815E1,1.2111253E1,1.7672131E0,3.854372E0,3.8651733E0,2.691988E0,2.2686249E1,2.4047104E1,2.5169577E1,1.47878E1,8.758606E0,5.3695564E0,1.0895594E1,4.671479E0,1.8494883E0,1.2507241E0,2.3361177E0,2.496666E0,8.6250687E-1,2.105133E0,0E0,6.8489075E-2,1.7954865E1,1.0714087E1,1.14811325E1,1.7362854E1,1.6681448E1,2.289711E0,1.2937884E1,7.962961E0,6.145325E-1,2.2369614E0,3.084344E0,5.031048E0,1.2413964E1,1.4227771E1,3.480999E0,1.1548996E1,1.4137471E0,7.273352E-1,0E0,3.322259E-1,2.1559324E0,3.129312E0,2.9128474E-1,1.4169607E0,4.225842E-1,6.347332E-1,1.9564209E0,3.1047487E0,8.104324E-3,0E0,0E0,0E0,0E0,0E0,0E0,0E0,0E0,0E0,0E0,0E0,0E0,0E0,0E0,0E0,0E0,0E0,0E0,0E0,0E0,0E0,0E0,0E0,0E0,0E0,0E0,0E0,0E0,0E0,0E0,0E0,0E0,0E0,0E0,0E0,0E0,0E0,0E0,0E0,0E0,0E0,0E0,0E0,0E0,0E0,0E0,0E0,0E0,0E0,0E0,0E0,0E0,0E0,0E0,0E0,0E0,0E0],"parents":[2147483647,0,0,1,1,2,2,3,3,4,4,5,5,6,6,7,7,8,8,9,9,10,10,11,11,12,12,13,13,14,14,15,15,16,16,17,17,18,18,19,19,20,20,21,21,22,22,23,23,24,24,25,25,26,26,27,27,28,28,30,30,31,31,32,32,33,33,34,34,35,35,36,36,37,37,38,38,39,39,40,40,41,41,42,42,43,43,44,44,45,45,46,46,47,47,48,48,50,50,51,51,52,52,53,53,54,54,55,55,56,56,57,57,58,58,59,59],"right_children":[2,4,6,8,10,12,14,16,18,20,22,24,26,28,30,32,34,36,38,40,42,44,46,48,50,52,54,56,58,-1,60,62,64,66,68,70,72,74,76,78,80,82,84,86,88,90,92,94,96,-1,98,100,102,104,106,108,110,112,114,116,-1,-1,-1,-1,-1,-1,-1,-1,-1,-1,-1,-1,-1,-1,-1,-1,-1,-1,-1,-1,-1,-1,-1,-1,-1,-1,-1,-1,-1,-1,-1,-1,-1,-1,-1,-1,-1,-1,-1,-1,-1,-1,-1,-1,-1,-1,-1,-1,-1,-1,-1,-1,-1,-1,-1,-1,-1],"split_conditions":[8.00999E-1,7.0046246E-1,8.765047E-1,5.8903295E-1,5.382733E-1,6.405734E-1,9.229349E-1,2.2476742E-1,4.4492257E-1,3.9470953E-1,5.633768E-1,9.786195E-1,8.7246895E-1,6.546305E-1,5.050807E-1,3.7470606E-1,3.1421062E-1,4.658098E-1,5.1044923E-1,7.2495717E-1,6.849444E-2,6.988743E-1,7.517034E-1,6.876981E-1,9.663166E-1,7.5642115E-1,7.407549E-1,4.5500502E-1,6.735252E-1,5.359131E-1,6.371554E-1,1.6998287E-1,4.1690215E-1,5.0284046E-1,6.2069666E-1,2.8044134E-1,4.7084424E-1,3.3090818E-1,6.160577E-1,1.8699694E-1,2.3038259E-1,7.4695456E-1,2.7105257E-1,1.4285715E-1,7.598855E-1,5.080236E-1,7.572967E-1,2.8627568E-1,4.4481832E-1,2.2326417E-1,2.5125983E-1,6.413291E-1,5.763719E-1,4.8407727E-1,6.935309E-1,3.5319138E-1,7.3999363E-1,7.890163E-1,4.566115E-1,6.824181E-1,8.104859E-2,-1.9147949E-1,-1.3687245E0,-2.2171915E-1,-8.847748E-1,-5.7288086E-1,-2.7446032E-1,-1.9812207E-1,1.1918873E-1,-3.6580536E-1,1.1333554E-1,-2.4595337E-1,-8.247473E-1,2.3788239E-1,-2.0900248E-1,4.4892815E-1,-1.3782655E-1,-8.999176E-2,-2.7192485E-1,-2.6341632E-1,-1.2327139E-1,2.5962068E-2,5.163574E-1,-2.4393262E-1,-8.036725E-2,-2.0674361E-1,-3.147036E-2,-6.4117156E-2,1.2757404E-1,-6.651916E-2,3.2984126E-1,-2.798427E-1,1.5189645E-1,4.8281316E-2,-2.23919E-2,1.7122559E-1,4.0341884E-2,-9.148407E-2,5.029602E-2,6.8129115E-2,6.120562E-3,1.7885554E-1,-2.9736329E-2,6.624756E-2,-7.242371E-2,9.9860884E-2,2.2419117E-1,-7.7433474E-2,5.408478E-2,7.790956E-2,1.4155991E-1,1.2274476E-1,1.9473314E-1,-9.731873E-2,1.0800293E-1,2.1608983E-1,6.17157E-2],"split_indices":[18,18,18,14,19,19,18,18,11,19,2,15,9,19,6,19,15,10,1,18,15,16,18,14,16,19,6,4,8,0,13,7,2,18,9,3,18,7,2,13,19,0,16,12,18,1,18,8,5,0,2,3,8,1,19,3,5,19,14,7,0,0,0,0,0,0,0,0,0,0,0,0,0,0,0,0,0,0,0,0,0,0,0,0,0,0,0,0,0,0,0,0,0,0,0,0,0,0,0,0,0,0,0,0,0,0,0,0,0,0,0,0,0,0,0,0,0],"split_type":[0,0,0,0,0,0,0,0,0,0,0,0,0,0,0,0,0,0,0,0,0,0,0,0,0,0,0,0,0,0,0,0,0,0,0,0,0,0,0,0,0,0,0,0,0,0,0,0,0,0,0,0,0,0,0,0,0,0,0,0,0,0,0,0,0,0,0,0,0,0,0,0,0,0,0,0,0,0,0,0,0,0,0,0,0,0,0,0,0,0,0,0,0,0,0,0,0,0,0,0,0,0,0,0,0,0,0,0,0,0,0,0,0,0,0,0,0],"sum_hessian":[3.212E3,1.43E3,1.782E3,3.89E2,1.041E3,6.9E2,1.092E3,3.2E2,6.9E1,6.47E2,3.94E2,3.5E2,3.4E2,1.053E3,3.9E1,2.1E1,2.99E2,3.3E1,3.6E1,2.34E2,4.13E2,3.47E2,4.7E1,3.4E2,1E1,2.94E2,4.6E1,2.43E2,8.1E2,2E0,3.7E1,6E0,1.5E1,5.4E1,2.45E2,2.7E1,6E0,2.2E1,1.4E1,6.5E1,1.69E2,4E0,4.09E2,2.09E2,1.38E2,1.4E1,3.3E1,3.15E2,2.5E1,4E0,6E0,2.58E2,3.6E1,5E0,4.1E1,7E0,2.36E2,7.82E2,2.8E1,3.5E1,2E0,2E0,4E0,1.3E1,2E0,2.1E1,3.3E1,2.29E2,1.6E1,9E0,1.8E1,2E0,4E0,9E0,1.3E1,1.2E1,2E0,3E0,6.2E1,1.1E1,1.58E2,3E0,1E0,1.7E1,3.92E2,4.6E1,1.63E2,6.5E1,7.3E1,2E0,1.2E1,6E0,2.7E1,2.7E1,2.88E2,4E0,2.1E1,1E0,5E0,1.89E2,6.9E1,2.8E1,8E0,1E0,4E0,1.6E1,2.5E1,4E0,3E0,2.2E2,1.6E1,7.44E2,3.8E1,9E0,1.9E1,3.4E1,1E0],"tree_param":{"num_deleted":"0","num_feature":"20","num_nodes":"117","size_leaf_vector":"1"}},{"base_weights":[-5.11433E-3,-3.2242286E-1,1.6390748E-1,-1.0665137E0,-2.858233E-1,-5.1120125E-2,2.432428E-1,-4.7488505E-1,-1.7918329E0,-3.5999715E-1,-7.6320976E-2,-1.0827911E-1,8.726465E-2,1.7929065E-1,3.0646282E-1,-8.8568515E-1,7.655258E-1,-3.2840207E0,-1.0720009E0,-7.0163804E-1,-3.2302424E-1,8.922353E-1,-1.3840103E-1,-1.2462825E-1,2.9291153E-1,2.449341E-1,7.3393844E-2,1.4885034E-1,3.7992585E-1,4.2872927E-1,3.0167228E-1,-4.2799038E-1,-6.333466E-1,5.3588867E-2,9.939067E-1,-1.1876377E0,-3.1941834E-1,8.168538E-3,-1.5227522E0,-4.459295E-1,-1.0584432E0,-4.2496207E-1,-1.2328976E-1,1.804896E0,3.615519E-1,-1.2293192E0,-8.611084E-2,-1.3494131E-1,3.2236734E-1,5.6546456E-1,7.2833255E-2,5.636117E-2,1.5375824E-1,6.725281E-1,1.4064054E-1,-1.9960327E-1,4.061521E-1,2.7386898E-1,3.969757E-1,-2.869137E-1,-1.4398748E-3,-1.8013E-2,4.2127993E-2,1.5386124E-1,3.9119568E-1,-8.1953436E-2,1.1417237E-1,-7.8206754E-1,-2.6151532E-1,-1.6567665E-1,3.8445283E-2,-5.473664E-1,-2.1379237E-1,1.9146554E-1,-1.3201591E-1,-1.1931709E-1,7.527724E-2,1.436966E-1,5.9228396E-1,-1.7946953E-2,2.3786926E-1,-5.690857E-1,-1.444336E-1,9.751139E-2,-8.555122E-2,-7.920125E-2,-3.263502E-2,-5.5819705E-2,1.2275391E-1,7.4466705E-2,2.224022E-1,5.384102E-2,-7.07428E-2,2.750085E-3,5.2714847E-2,1.0147096E-2,2.4839288E-1,3.6614172E-2,1.0906513E-1,-9.253235E-2,-7.2692875E-3,1.5465657E-1,6.9925636E-2,9.220263E-2,5.4393698E-2,9.1254495E-2,1.552145E-1],"categories":[],"categories_nodes":[],"categories_segments":[],"categories_sizes":[],"default_left":[0,0,0,0,0,0,0,0,0,0,0,0,0,0,0,0,0,0,0,0,0,0,0,0,0,0,0,0,0,0,0,0,0,0,0,0,0,0,0,0,0,0,0,0,0,0,0,0,0,0,0,0,0,0,0,0,0,0,0,0,0,0,0,0,0,0,0,0,0,0,0,0,0,0,0,0,0,0,0,0,0,0,0,0,0,0,0,0,0,0,0,0,0,0,0,0,0,0,0,0,0,0,0,0,0,0,0],"id":9,"left_children":[1,3,5,7,9,11,13,15,17,19,21,23,25,27,29,31,33,35,37,39,41,43,45,47,49,-1,51,53,55,-1,57,59,-1,61,63,-1,-1,65,67,69,71,73,75,77,79,81,83,85,87,89,91,93,-1,95,97,99,101,103,105,-1,-1,-1,-1,-1,-1,-1,-1,-1,-1,-1,-1,-1,-1,-1,-1,-1,-1,-1,-1,-1,-1,-1,-1,-1,-1,-1,-1,-1,-1,-1,-1,-1,-1,-1,-1,-1,-1,-1,-1,-1,-1,-1,-1,-1,-1,-1,-1],"loss_changes":[1.7237267E2,3.0114868E1,3.5785755E1,2.146331E1,1.6537727E1,4.4864707E0,6.139023E0,1.5964842E1,2.1184387E1,9.714317E0,1.6959333E1,2.6667137E0,1.6190587E0,4.609499E0,3.704605E0,1.19969425E1,1.2474799E0,6.2675705E0,8.289532E0,6.462105E0,1.4444283E1,7.581112E0,1.4953846E1,1.8229175E0,9.185436E-1,0E0,1.1977713E0,2.7644415E0,1.6009579E0,0E0,1.9236374E0,4.020375E0,0E0,3.8034383E-2,2.2617865E-1,0E0,0E0,7.3261565E-1,6.1972713E0,2.8785973E0,6.9123535E0,7.837776E0,2.4952461E1,4.01865E-1,2.2285333E0,5.0783863E0,2.0799026E1,1.2474146E0,4.7337854E-1,2.0654988E-1,3.7144732E-1,8.940147E-1,0E0,9.64849E-1,2.6745071E0,8.796194E-2,1.6969519E0,1.7938766E0,1.7531948E0,0E0,0E0,0E0,0E0,0E0,0E0,0E0,0E0,0E0,0E0,0E0,0E0,0E0,0E0,0E0,0E0,0E0,0E0,0E0,0E0,0E0,0E0,0E0,0E0,0E0,0E0,0E0,0E0,0E0,0E0,0E0,0E0,0E0,0E0,0E0,0E0,0E0,0E0,0E0,0E0,0E0,0E0,0E0,0E0,0E0,0E0,0E0,0E0],"parents":[2147483647,0,0,1,1,2,2,3,3,4,4,5,5,6,6,7,7,8,8,9,9,10,10,11,11,12,12,13,13,14,14,15,15,16,16,17,17,18,18,19,19,20,20,21,21,22,22,23,23,24,24,26,26,27,27,28,28,30,30,31,31,33,33,34,34,37,37,38,38,39,39,40,40,41,41,42,42,43,43,44,44,45,45,46,46,47,47,48,48,49,49,50,50,51,51,53,53,54,54,55,55,56,56,57,57,58,58],"right_children":[2,4,6,8,10,12,14,16,18,20,22,24,26,28,30,32,34,36,38,40,42,44,46,48,50,-1,52,54,56,-1,58,60,-1,62,64,-1,-1,66,68,70,72,74,76,78,80,82,84,86,88,90,92,94,-1,96,98,100,102,104,106,-1,-1,-1,-1,-1,-1,-1,-1,-1,-1,-1,-1,-1,-1,-1,-1,-1,-1,-1,-1,-1,-1,-1,-1,-1,-1,-1,-1,-1,-1,-1,-1,-1,-1,-1,-1,-1,-1,-1,-1,-1,-1,-1,-1,-1,-1,-1,-1],"split_conditions":[7.711477E-1,2.4903904E-1,5.9571934E-1,4.9525055E-1,5.9227186E-1,7.5330895E-1,8.917936E-1,6.2169397E-1,5.468576E-1,3.323467E-1,5.98836E-1,6.876981E-1,4.754374E-1,8.733307E-1,3.0832228E-1,5.366486E-1,5.808983E-1,4.566115E-1,5.2806616E-1,4.2166352E-1,3.5282245E-1,5.457691E-1,4.124438E-1,8.5673124E-1,7.4322563E-1,2.449341E-1,9.182713E-1,7.736101E-1,5.859047E-1,4.2872927E-1,7.372676E-1,3.5614538E-1,-6.333466E-1,4.7634524E-1,4.2700258E-1,-1.1876377E0,-3.1941834E-1,7.823081E-1,2.7573368E-1,8.161698E-1,2.1204212E-1,1.6649163E-1,5.8201486E-1,2.4932314E-1,6.107201E-1,7.501051E-1,4.6423742E-1,4.0472665E-1,4.478886E-1,6.055605E-1,5.560378E-1,5.367823E-1,1.5375824E-1,2.7338737E-1,7.6652926E-1,5.881555E-1,9.847245E-1,6.610315E-1,7.2932124E-1,-2.869137E-1,-1.4398748E-3,-1.8013E-2,4.2127993E-2,1.5386124E-1,3.9119568E-1,-8.1953436E-2,1.1417237E-1,-7.8206754E-1,-2.6151532E-1,-1.6567665E-1,3.8445283E-2,-5.473664E-1,-2.1379237E-1,1.9146554E-1,-1.3201591E-1,-1.1931709E-1,7.527724E-2,1.436966E-1,5.9228396E-1,-1.7946953E-2,2.3786926E-1,-5.690857E-1,-1.444336E-1,9.751139E-2,-8.555122E-2,-7.920125E-2,-3.263502E-2,-5.5819705E-2,1.2275391E-1,7.4466705E-2,2.224022E-1,5.384102E-2,-7.07428E-2,2.750085E-3,5.2714847E-2,1.0147096E-2,2.4839288E-1,3.6614172E-2,1.0906513E-1,-9.253235E-2,-7.2692875E-3,1.5465657E-1,6.9925636E-2,9.220263E-2,5.4393698E-2,9.1254495E-2,1.552145E-1],"split_indices":[18,18,19,15,19,10,18,16,15,3,19,14,8,9,8,3,0,14,0,19,13,4,17,18,14,0,18,18,3,0,4,9,0,0,1,0,0,3,14,0,16,9,16,7,0,18,3,19,4,5,7,14,0,6,19,0,15,0,19,0,0,0,0,0,0,0,0,0,0,0,0,0,0,0,0,0,0,0,0,0,0,0,0,0,0,0,0,0,0,0,0,0,0,0,0,0,0,0,0,0,0,0,0,0,0,0,0],"split_type":[0,0,0,0,0,0,0,0,0,0,0,0,0,0,0,0,0,0,0,0,0,0,0,0,0,0,0,0,0,0,0,0,0,0,0,0,0,0,0,0,0,0,0,0,0,0,0,0,0,0,0,0,0,0,0,0,0,0,0,0,0,0,0,0,0,0,0,0,0,0,0,0,0,0,0,0,0,0,0,0,0,0,0,0,0,0,0,0,0,0,0,0,0,0,0,0,0,0,0,0,0,0,0,0,0,0,0],"sum_hessian":[3.212E3,1.116E3,2.096E3,5.1E1,1.065E3,5.65E2,1.531E3,2.9E1,2.2E1,7.86E2,2.79E2,4E2,1.65E2,7.63E2,7.68E2,2.2E1,7E0,6E0,1.6E1,7.5E1,7.11E2,1.6E1,2.63E2,3.85E2,1.5E1,2E0,1.63E2,6.64E2,9.9E1,2E0,7.66E2,1.7E1,5E0,2E0,5E0,4E0,2E0,5E0,1.1E1,4.5E1,3E1,4.7E2,2.41E2,5E0,1.1E1,1.1E1,2.52E2,3.77E2,8E0,6E0,9E0,1.58E2,5E0,9E0,6.55E2,4E0,9.5E1,5.96E2,1.7E2,7E0,1E1,1E0,1E0,3E0,2E0,3E0,2E0,3E0,8E0,3.8E1,7E0,8E0,2.2E1,6E0,4.64E2,1.39E2,1.02E2,1E0,4E0,6E0,5E0,5E0,6E0,8.2E1,1.7E2,6.2E1,3.15E2,1E0,7E0,3E0,3E0,7E0,2E0,1.14E2,4.4E1,2E0,7E0,6.06E2,4.9E1,2E0,2E0,5.7E1,3.8E1,4.36E2,1.6E2,9.8E1,7.2E1],"tree_param":{"num_deleted":"0","num_feature":"20","num_nodes":"107","size_leaf_vector":"1"}},{"base_weights":[-4.031298E-3,-2.6175088E-1,1.0476008E-1,-8.0176926E-1,-2.303636E-1,-8.128552E-2,1.6194429E-1,-3.441681E-1,-1.3637809E0,-2.4055749E-1,1.3337148E0,-1.251483E-1,3.2302346E-2,1.0038112E-1,2.065112E-1,-6.600488E-1,6.070099E-1,-2.5140991E0,-8.098979E-1,-2.2824107E-1,-1.3114319E0,9.402008E-2,4.4252932E-1,-2.946534E-2,-1.8437162E-1,3.4974912E-1,-1.3986136E-2,7.809884E-1,9.36434E-2,1.9907238E-1,6.827148E-1,-3.156111E-1,-1.5833536E0,2.8775534E-1,3.1295472E-1,-9.02602E-1,-2.5553286E-1,3.900655E-2,-1.1668587E0,-3.9569104E-1,-1.6210933E-1,-1.8484573E0,1.6733399E-1,-5.2270163E-2,4.3735614E-1,-4.4921535E-1,-1.4960787E-1,4.1367963E-2,6.877984E-1,6.398344E-2,-8.716359E-2,-8.382161E-3,1.0984131E0,-6.7577898E-3,1.3567132E-1,2.0511505E-1,-3.094915E-1,1.2398682E0,3.6739835E-1,-1.3133347E-1,2.641846E-1,-5.225391E-1,-1.1867066E-1,-1.5312196E-2,1.097168E-1,-8.4600836E-2,8.100358E-2,-6.0610086E-1,-1.9736531E-1,-1.269311E-1,2.3825227E-1,3.1899147E-2,-7.087892E-2,-2.3021546E-1,-6.242752E-1,2.7864562E-2,-3.683691E-2,-3.0752564E-2,1.633255E-1,-9.0178E-2,-2.1391805E-1,-6.54448E-2,-1.7573945E-2,2.1203615E-1,-2.8755799E-2,2.2204973E-1,4.032898E-2,3.378525E-2,-7.372132E-2,-4.611228E-2,5.8732773E-3,4.970856E-2,-5.3480532E-2,7.693177E-2,3.7343904E-1,-9.668996E-2,2.0289876E-2,1.4323425E-1,3.4434967E-2,6.641037E-2,2.3665978E-2,5.4556277E-2,-1.4804383E-1,1.0435181E-1,4.1277468E-1,-3.4009553E-2,1.685566E-1],"categories":[],"categories_nodes":[],"categories_segments":[],"categories_sizes":[],"default_left":[0,0,0,0,0,0,0,0,0,0,0,0,0,0,0,0,0,0,0,0,0,0,0,0,0,0,0,0,0,0,0,0,0,0,0,0,0,0,0,0,0,0,0,0,0,0,0,0,0,0,0,0,0,0,0,0,0,0,0,0,0,0,0,0,0,0,0,0,0,0,0,0,0,0,0,0,0,0,0,0,0,0,0,0,0,0,0,0,0,0,0,0,0,0,0,0,0,0,0,0,0,0,0,0,0,0,0],"id":10,"left_children":[1,3,5,7,9,11,13,15,17,19,21,23,25,27,29,31,33,35,37,39,41,-1,-1,43,45,47,49,51,53,55,57,59,61,63,-1,-1,-1,65,67,69,71,73,-1,75,77,79,81,83,85,87,89,91,93,95,97,99,101,103,105,-1,-1,-1,-1,-1,-1,-1,-1,-1,-1,-1,-1,-1,-1,-1,-1,-1,-1,-1,-1,-1,-1,-1,-1,-1,-1,-1,-1,-1,-1,-1,-1,-1,-1,-1,-1,-1,-1,-1,-1,-1,-1,-1,-1,-1,-1,-1,-1],"loss_changes":[9.011245E1,1.5985313E1,2.4057013E1,1.2903843E1,1.47183E1,2.6546147E0,4.7230988E0,9.414419E0,1.2618095E1,1.1544708E1,4.0323353E-1,2.170566E0,2.1943169E0,3.265285E0,3.4135704E0,6.8147583E0,8.1381917E-1,3.1922722E0,5.196949E0,9.780422E0,1.1069176E1,0E0,0E0,1.5984364E0,2.1148434E0,1.95226E0,7.530126E-1,1.7631669E0,3.0475063E0,3.0996895E0,2.1796694E0,3.0160265E0,4.4017696E-1,1.771568E-1,0E0,0E0,0E0,5.2107334E-1,3.8836308E0,8.522961E0,1.274494E1,4.1358376E-1,0E0,1.4649247E0,4.604013E-1,8.4441423E-1,1.3036909E0,1.072149E0,1.6130543E-1,9.9170595E-1,4.8601228E-1,1.18258275E-1,2.9704142E-1,5.0451055E0,3.5789785E0,1.9869194E0,1.1745616E0,1.281929E-1,1.0920608E0,0E0,0E0,0E0,0E0,0E0,0E0,0E0,0E0,0E0,0E0,0E0,0E0,0E0,0E0,0E0,0E0,0E0,0E0,0E0,0E0,0E0,0E0,0E0,0E0,0E0,0E0,0E0,0E0,0E0,0E0,0E0,0E0,0E0,0E0,0E0,0E0,0E0,0E0,0E0,0E0,0E0,0E0,0E0,0E0,0E0,0E0,0E0,0E0],"parents":[2147483647,0,0,1,1,2,2,3,3,4,4,5,5,6,6,7,7,8,8,9,9,10,10,11,11,12,12,13,13,14,14,15,15,16,16,17,17,18,18,19,19,20,20,23,23,24,24,25,25,26,26,27,27,28,28,29,29,30,30,31,31,32,32,33,33,37,37,38,38,39,39,40,40,41,41,43,43,44,44,45,45,46,46,47,47,48,48,49,49,50,50,51,51,52,52,53,53,54,54,55,55,56,56,57,57,58,58],"right_children":[2,4,6,8,10,12,14,16,18,20,22,24,26,28,30,32,34,36,38,40,42,-1,-1,44,46,48,50,52,54,56,58,60,62,64,-1,-1,-1,66,68,70,72,74,-1,76,78,80,82,84,86,88,90,92,94,96,98,100,102,104,106,-1,-1,-1,-1,-1,-1,-1,-1,-1,-1,-1,-1,-1,-1,-1,-1,-1,-1,-1,-1,-1,-1,-1,-1,-1,-1,-1,-1,-1,-1,-1,-1,-1,-1,-1,-1,-1,-1,-1,-1,-1,-1,-1,-1,-1,-1,-1,-1],"split_conditions":[7.598855E-1,2.4903904E-1,5.6076396E-1,4.9525055E-1,7.271089E-1,6.696084E-1,6.7754906E-1,6.2169397E-1,5.468576E-1,7.223528E-1,4.5157057E-1,3.0650103E-1,7.8995997E-1,7.6114786E-1,8.040202E-1,5.366486E-1,4.2700258E-1,4.566115E-1,3.8054487E-1,5.4668164E-1,5.8835924E-1,9.402008E-2,4.4252932E-1,4.6750998E-1,2.2880484E-1,7.8063416E-1,3.7243152E-1,3.8600972E-1,6.988743E-1,7.0898026E-1,5.823481E-1,5.266922E-1,6.881168E-1,4.7634524E-1,3.1295472E-1,-9.02602E-1,-2.5553286E-1,4.4323283E-1,2.7573368E-1,6.926132E-1,4.7584814E-1,4.432398E-1,1.6733399E-1,5.5154717E-1,1E0,4.634948E-1,7.9521096E-1,2.8309706E-1,7.1292907E-1,6.1398613E-1,1E0,6.918042E-1,5.1090485E-1,1.4285715E-1,7.3622364E-1,9.847245E-1,4.328034E-1,4.6595624E-1,6.133446E-1,-1.3133347E-1,2.641846E-1,-5.225391E-1,-1.1867066E-1,-1.5312196E-2,1.097168E-1,-8.4600836E-2,8.100358E-2,-6.0610086E-1,-1.9736531E-1,-1.269311E-1,2.3825227E-1,3.1899147E-2,-7.087892E-2,-2.3021546E-1,-6.242752E-1,2.7864562E-2,-3.683691E-2,-3.0752564E-2,1.633255E-1,-9.0178E-2,-2.1391805E-1,-6.54448E-2,-1.7573945E-2,2.1203615E-1,-2.8755799E-2,2.2204973E-1,4.032898E-2,3.378525E-2,-7.372132E-2,-4.611228E-2,5.8732773E-3,4.970856E-2,-5.3480532E-2,7.693177E-2,3.7343904E-1,-9.668996E-2,2.0289876E-2,1.4323425E-1,3.4434967E-2,6.641037E-2,2.3665978E-2,5.4556277E-2,-1.4804383E-1,1.0435181E-1,4.1277468E-1,-3.4009553E-2,1.685566E-1],"split_indices":[18,18,19,15,19,9,19,16,15,2,0,8,18,18,19,3,1,14,11,5,16,0,0,11,13,18,1,6,16,1,7,3,0,0,0,0,0,9,14,19,3,4,0,16,12,19,18,1,4,0,12,0,4,12,17,15,8,6,0,0,0,0,0,0,0,0,0,0,0,0,0,0,0,0,0,0,0,0,0,0,0,0,0,0,0,0,0,0,0,0,0,0,0,0,0,0,0,0,0,0,0,0,0,0,0,0,0],"split_type":[0,0,0,0,0,0,0,0,0,0,0,0,0,0,0,0,0,0,0,0,0,0,0,0,0,0,0,0,0,0,0,0,0,0,0,0,0,0,0,0,0,0,0,0,0,0,0,0,0,0,0,0,0,0,0,0,0,0,0,0,0,0,0,0,0,0,0,0,0,0,0,0,0,0,0,0,0,0,0,0,0,0,0,0,0,0,0,0,0,0,0,0,0,0,0,0,0,0,0,0,0,0,0,0,0,0,0],"sum_hessian":[3.212E3,9.53E2,2.259E3,5.1E1,9.02E2,5.31E2,1.728E3,2.9E1,2.2E1,8.97E2,5E0,3.83E2,1.48E2,7.27E2,1.001E3,2.2E1,7E0,6E0,1.6E1,8.88E2,9E0,1E0,4E0,1.47E2,2.36E2,1.8E1,1.3E2,6E0,7.21E2,9.87E2,1.4E1,1.7E1,5E0,5E0,2E0,4E0,2E0,5E0,1.1E1,2.5E2,6.38E2,7E0,2E0,1.41E2,6E0,2.6E1,2.1E2,1E1,8E0,6.3E1,6.7E1,2E0,4E0,2.13E2,5.08E2,9.76E2,1.1E1,4E0,1E1,1.6E1,1E0,4E0,1E0,1E0,4E0,2E0,3E0,3E0,8E0,2.45E2,5E0,1.38E2,5E2,2E0,5E0,4.6E1,9.5E1,1E0,5E0,1.8E1,8E0,1.19E2,9.1E1,1E0,9E0,7E0,1E0,5.5E1,8E0,4.1E1,2.6E1,1E0,1E0,1E0,3E0,4E1,1.73E2,2.8E1,4.8E2,8.64E2,1.12E2,3E0,8E0,1E0,3E0,3E0,7E0],"tree_param":{"num_deleted":"0","num_feature":"20","num_nodes":"107","size_leaf_vector":"1"}},{"base_weights":[-3.0809077E-3,-1.8546726E-1,7.391009E-2,-5.206998E-1,-1.529242E-1,-2.4899168E-2,1.2870044E-1,-1.8641571E0,-4.3022498E-1,-2.2503243E-1,5.3867172E-2,-3.7550665E-2,2.1238373E-1,1.1949217E-1,3.7467134E-1,-3.4194947E-3,-6.973492E-1,-6.486476E-1,-2.3735309E-2,-4.8481473E-1,-1.1410069E-1,3.8278666E-1,-1.9642723E-1,-2.061148E-1,-1.2550069E-2,8.3270264E-1,1.2281676E-1,1.3885634E-1,3.91966E-2,2.1964334E-2,4.5812625E-1,-3.2582456E-1,-8.4023E-1,1.3914053E-1,-6.876389E-1,-7.9428315E-1,-2.3389718E-1,4.7685985E-2,-3.0910447E-1,1.624534E-1,1.1365536E0,-4.0809378E-1,4.069968E-1,-1.4178571E-1,-6.6068524E-1,-6.4695366E-2,4.555668E-2,4.761658E-2,2.8845522E-1,1.5442343E-1,-5.296326E-2,4.7210896E-1,1.3425271E-1,-2.8968854E-2,1.5809418E-1,1.4712067E-1,-2.1500015E-1,8.1932575E-1,3.490403E-1,4.61622E-3,-2.6466525E-1,-3.297556E-1,-1.2863225E-1,-4.6717644E-2,1.4740483E-1,1.5294293E-1,-2.803717E-1,-1.7214012E-1,-2.8742628E-2,-8.791087E-2,4.442001E-2,-1.1248142E-1,8.6613685E-2,-8.195532E-2,1.4861713E-1,-2.809143E-2,3.7927645E-1,9.095994E-2,-1.5111318E-1,2.0845895E-1,-3.1565708E-1,-6.364041E-2,4.9615046E-3,-2.5830048E-1,6.8179324E-2,8.910726E-2,-2.2183202E-2,5.103356E-2,2.8706787E-3,5.3340055E-2,-4.39209E-2,2.840973E-1,4.1990664E-2,-7.854591E-2,4.1638497E-2,-1.2123928E-1,2.6185228E-3,2.0510216E-1,3.3354927E-2,5.62439E-2,-1.1412202E-1,7.466126E-3,2.7465594E-1,6.011734E-2,1.9249047E-1],"categories":[],"categories_nodes":[],"categories_segments":[],"categories_sizes":[],"default_left":[0,0,0,0,0,0,0,0,0,0,0,0,0,0,0,0,0,0,0,0,0,0,0,0,0,0,0,0,0,0,0,0,0,0,0,0,0,0,0,0,0,0,0,0,0,0,0,0,0,0,0,0,0,0,0,0,0,0,0,0,0,0,0,0,0,0,0,0,0,0,0,0,0,0,0,0,0,0,0,0,0,0,0,0,0,0,0,0,0,0,0,0,0,0,0,0,0,0,0,0,0,0,0,0,0],"id":11,"left_children":[1,3,5,7,9,11,13,15,17,19,21,23,25,27,29,-1,-1,31,33,35,37,39,41,43,45,47,49,51,53,55,57,59,61,63,-1,65,67,69,71,73,75,77,79,81,83,85,87,-1,-1,89,-1,91,93,95,97,-1,99,101,103,-1,-1,-1,-1,-1,-1,-1,-1,-1,-1,-1,-1,-1,-1,-1,-1,-1,-1,-1,-1,-1,-1,-1,-1,-1,-1,-1,-1,-1,-1,-1,-1,-1,-1,-1,-1,-1,-1,-1,-1,-1,-1,-1,-1,-1,-1],"loss_changes":[4.5130997E1,1.0328026E1,1.2238376E1,9.408115E0,1.2999918E1,2.4305763E0,3.2484875E0,4.238001E0,7.087529E0,1.8561176E1,1.8681023E1,3.229708E0,2.175694E0,2.1760216E0,1.520565E0,0E0,0E0,2.9422874E0,1.1033461E1,1.4800877E1,1.4337991E1,1.6091196E1,1.6642578E1,2.8012924E0,2.030013E0,2.8147912E-1,3.7734932E-1,1.6702309E0,2.2252696E0,1.3264712E0,1.3688974E0,4.000381E0,2.9382553E0,2.9844396E0,0E0,1.6210167E1,5.0141883E0,8.55967E0,8.215672E0,1.130341E1,3.5745144E0,6.68184E0,1.5012856E1,9.8364663E-1,2.3301249E0,1.2028942E0,1.4193122E0,0E0,0E0,2.651301E-1,0E0,2.2333608E0,2.0441093E0,2.4784794E0,2.3895388E0,0E0,6.039009E-1,6.649976E-1,1.3502154E0,0E0,0E0,0E0,0E0,0E0,0E0,0E0,0E0,0E0,0E0,0E0,0E0,0E0,0E0,0E0,0E0,0E0,0E0,0E0,0E0,0E0,0E0,0E0,0E0,0E0,0E0,0E0,0E0,0E0,0E0,0E0,0E0,0E0,0E0,0E0,0E0,0E0,0E0,0E0,0E0,0E0,0E0,0E0,0E0,0E0,0E0],"parents":[2147483647,0,0,1,1,2,2,3,3,4,4,5,5,6,6,7,7,8,8,9,9,10,10,11,11,12,12,13,13,14,14,17,17,18,18,19,19,20,20,21,21,22,22,23,23,24,24,25,25,26,26,27,27,28,28,29,29,30,30,31,31,32,32,33,33,35,35,36,36,37,37,38,38,39,39,40,40,41,41,42,42,43,43,44,44,45,45,46,46,49,49,51,51,52,52,53,53,54,54,56,56,57,57,58,58],"right_children":[2,4,6,8,10,12,14,16,18,20,22,24,26,28,30,-1,-1,32,34,36,38,40,42,44,46,48,50,52,54,56,58,60,62,64,-1,66,68,70,72,74,76,78,80,82,84,86,88,-1,-1,90,-1,92,94,96,98,-1,100,102,104,-1,-1,-1,-1,-1,-1,-1,-1,-1,-1,-1,-1,-1,-1,-1,-1,-1,-1,-1,-1,-1,-1,-1,-1,-1,-1,-1,-1,-1,-1,-1,-1,-1,-1,-1,-1,-1,-1,-1,-1,-1,-1,-1,-1,-1,-1],"split_conditions":[7.598855E-1,2.0869729E-1,6.184207E-1,2.2476742E-1,5.7084936E-1,6.5827996E-1,7.8284717E-1,4.6419087E-1,3.410075E-1,2.504426E-1,4.701827E-1,4.206987E-1,7.9143834E-1,6.983522E-1,7.893021E-1,-3.4194947E-3,-6.973492E-1,2.3525959E-1,7.645011E-1,7.0046246E-1,3.684517E-1,4.8626477E-1,4.2825782E-1,5.768528E-1,5.365311E-1,5.4081297E-1,6.475823E-1,7.643757E-1,1E0,4.708015E-1,5.0350326E-1,2.5754252E-1,2.8754267E-1,4.6738818E-1,-6.876389E-1,3.0516085E-1,5.105726E-1,4.5892602E-1,6.665223E-1,2.4216834E-1,2.3622377E-1,5.148185E-1,5.641372E-1,5.8186793E-1,6.5772504E-1,2.644863E-1,4.1241732E-1,4.761658E-2,2.8845522E-1,6.4843637E-1,-5.296326E-2,5.022199E-1,7.6900494E-1,7.824628E-1,7.8136116E-1,1.4712067E-1,4.6595624E-1,4.18972E-1,7.456271E-1,4.61622E-3,-2.6466525E-1,-3.297556E-1,-1.2863225E-1,-4.6717644E-2,1.4740483E-1,1.5294293E-1,-2.803717E-1,-1.7214012E-1,-2.8742628E-2,-8.791087E-2,4.442001E-2,-1.1248142E-1,8.6613685E-2,-8.195532E-2,1.4861713E-1,-2.809143E-2,3.7927645E-1,9.095994E-2,-1.5111318E-1,2.0845895E-1,-3.1565708E-1,-6.364041E-2,4.9615046E-3,-2.5830048E-1,6.8179324E-2,8.910726E-2,-2.2183202E-2,5.103356E-2,2.8706787E-3,5.3340055E-2,-4.39209E-2,2.840973E-1,4.1990664E-2,-7.854591E-2,4.1638497E-2,-1.2123928E-1,2.6185228E-3,2.0510216E-1,3.3354927E-2,5.62439E-2,-1.1412202E-1,7.466126E-3,2.7465594E-1,6.011734E-2,1.9249047E-1],"split_indices":[18,13,19,18,15,13,4,0,2,8,10,16,18,0,17,0,0,8,0,18,6,9,13,19,19,0,7,18,12,0,0,2,2,10,0,14,17,4,19,2,13,9,1,14,1,9,8,0,0,2,0,14,18,18,18,0,6,0,6,0,0,0,0,0,0,0,0,0,0,0,0,0,0,0,0,0,0,0,0,0,0,0,0,0,0,0,0,0,0,0,0,0,0,0,0,0,0,0,0,0,0,0,0,0,0],"split_type":[0,0,0,0,0,0,0,0,0,0,0,0,0,0,0,0,0,0,0,0,0,0,0,0,0,0,0,0,0,0,0,0,0,0,0,0,0,0,0,0,0,0,0,0,0,0,0,0,0,0,0,0,0,0,0,0,0,0,0,0,0,0,0,0,0,0,0,0,0,0,0,0,0,0,0,0,0,0,0,0,0,0,0,0,0,0,0,0,0,0,0,0,0,0,0,0,0,0,0,0,0,0,0,0,0],"sum_hessian":[3.212E3,9.53E2,2.259E3,8.3E1,8.7E2,8.06E2,1.453E3,4E0,7.9E1,6.45E2,2.25E2,7.66E2,4E1,1.402E3,5.1E1,1E0,3E0,5.1E1,2.8E1,1.92E2,4.53E2,9.7E1,1.28E2,9.8E1,6.68E2,4E0,3.6E1,1.129E3,2.73E2,1E1,4.1E1,2E1,3.1E1,2.7E1,1E0,8.5E1,1.07E2,2.48E2,2.05E2,7.6E1,2.1E1,9.5E1,3.3E1,8.7E1,1.1E1,3.52E2,3.16E2,1E0,3E0,3.3E1,3E0,1.4E1,1.115E3,1.74E2,9.9E1,3E0,7E0,8E0,3.3E1,1.3E1,7E0,1.8E1,1.3E1,1.5E1,1.2E1,8E0,7.7E1,3E1,7.7E1,5.6E1,1.92E2,1.85E2,2E1,3.3E1,4.3E1,2E0,1.9E1,1.1E1,8.4E1,2.8E1,5E0,6E1,2.7E1,9E0,2E0,8E0,3.44E2,7E1,2.46E2,3.1E1,2E0,5E0,9E0,1.2E1,1.103E3,1.5E1,1.59E2,7E0,9.2E1,2E0,5E0,1E0,7E0,2.3E1,1E1],"tree_param":{"num_deleted":"0","num_feature":"20","num_nodes":"105","size_leaf_vector":"1"}},{"base_weights":[-2.4497455E-3,-2.3234558E-1,2.9300192E-2,-2.9897845E-1,3.2687378E-1,-6.640372E-2,7.424886E-2,-7.860541E-1,-2.2796436E-1,6.1598104E-1,-3.6544096E-1,-2.4168904E-1,-4.1025322E-2,5.7432715E-2,1.995613E-1,2.0377502E-1,-1.0464038E0,-2.6472035E-1,1.1742859E0,-3.636551E-1,9.2994225E-1,-1.482782E0,2.959086E-1,-4.7087198E-1,-1.5795755E-1,-5.48762E-2,2.783684E-1,2.0496221E-1,4.7270153E-2,1.773825E-1,5.0119627E-1,7.5174457E-1,-4.9454346E-1,-1.817344E0,-6.6533387E-1,-3.024489E-1,5.249285E-1,4.5256194E-1,1.14349365E-1,-6.565348E-2,-2.51532E-1,1.2563362E0,1.6091156E-1,-5.3381425E-1,-4.445801E-2,5.05291E-1,-2.0687257E-1,-3.2427844E-1,-2.5004083E-1,-1.2877525E-1,-2.1501161E-1,-2.6825503E-2,-2.503582E-1,4.7013703E-1,9.725545E-2,-4.199892E-2,5.9992397E-1,-4.817296E-1,5.3641953E-2,1.3845219E-1,2.7903327E-1,-7.5279236E-2,5.7284325E-1,-2.9067993E-3,2.717908E-1,-1.774086E-1,-1.6090393E-2,-2.5957033E-1,-7.399689E-1,2.706085E-1,-2.5225347E-1,-8.1724875E-2,-4.975708E-1,2.8589815E-1,-1.3085634E-1,-5.4808047E-2,1.0626526E-1,-1.4745788E-1,8.104935E-2,4.0712097E-1,-3.820038E-2,-1.2662354E-1,1.276764E-1,1.8106124E-1,-2.7365113E-2,-1.2802328E-1,1.1149598E-2,-1.2743455E-1,-2.3079671E-2,-3.377043E-2,9.998613E-3,-3.3324588E-2,-1.4265926E-1,-8.509411E-2,9.056671E-2,3.9500915E-2,-1.23332776E-1,2.8161424E-1,5.4095767E-2,-3.9875796E-1,-5.013794E-2,-1.1165965E-1,1.7646195E-2,4.3955065E-2,-9.650574E-2,9.986703E-2,3.8868446E-2,2.883484E-1,1.2840806E-1],"categories":[],"categories_nodes":[],"categories_segments":[],"categories_sizes":[],"default_left":[0,0,0,0,0,0,0,0,0,0,0,0,0,0,0,0,0,0,0,0,0,0,0,0,0,0,0,0,0,0,0,0,0,0,0,0,0,0,0,0,0,0,0,0,0,0,0,0,0,0,0,0,0,0,0,0,0,0,0,0,0,0,0,0,0,0,0,0,0,0,0,0,0,0,0,0,0,0,0,0,0,0,0,0,0,0,0,0,0,0,0,0,0,0,0,0,0,0,0,0,0,0,0,0,0,0,0,0,0],"id":12,"left_children":[1,3,5,7,9,11,13,15,17,19,21,23,25,27,29,31,33,35,37,39,41,43,45,47,49,51,53,55,57,59,61,63,65,67,69,71,73,-1,75,77,-1,79,81,-1,-1,83,-1,85,-1,87,-1,89,91,-1,93,95,97,99,101,103,105,-1,107,-1,-1,-1,-1,-1,-1,-1,-1,-1,-1,-1,-1,-1,-1,-1,-1,-1,-1,-1,-1,-1,-1,-1,-1,-1,-1,-1,-1,-1,-1,-1,-1,-1,-1,-1,-1,-1,-1,-1,-1,-1,-1,-1,-1,-1,-1],"loss_changes":[2.345907E1,1.4630058E1,1.2153108E1,1.1892448E1,8.631539E0,4.007044E0,4.0387154E0,1.1552103E1,1.6082432E1,9.565211E0,1.00451565E1,2.1132627E0,3.5101442E0,2.5330863E0,1.4297056E0,4.198343E0,9.073231E0,9.06666E0,2.6618032E0,1.0768467E0,5.571001E0,1.7154951E0,2.2055225E0,1.324357E0,1.2936776E0,4.149706E0,7.550127E0,1.0657079E1,5.378481E0,8.0427074E-1,9.520588E-1,7.1336985E-1,1.8172324E-1,4.665249E0,7.6356983E0,1.1196352E1,6.175571E0,0E0,2.784666E-1,9.9088746E-1,0E0,2.4029179E0,1.4140612E0,0E0,0E0,5.2389145E-1,0E0,8.6767936E-1,0E0,1.225682E0,0E0,3.4285161E0,2.9264913E0,0E0,2.423993E0,4.4131265E0,5.801366E0,4.843536E0,3.4842129E0,6.2602806E-1,4.2377472E-1,0E0,3.7588453E-1,0E0,0E0,0E0,0E0,0E0,0E0,0E0,0E0,0E0,0E0,0E0,0E0,0E0,0E0,0E0,0E0,0E0,0E0,0E0,0E0,0E0,0E0,0E0,0E0,0E0,0E0,0E0,0E0,0E0,0E0,0E0,0E0,0E0,0E0,0E0,0E0,0E0,0E0,0E0,0E0,0E0,0E0,0E0,0E0,0E0,0E0],"parents":[2147483647,0,0,1,1,2,2,3,3,4,4,5,5,6,6,7,7,8,8,9,9,10,10,11,11,12,12,13,13,14,14,15,15,16,16,17,17,18,18,19,19,20,20,21,21,22,22,23,23,24,24,25,25,26,26,27,27,28,28,29,29,30,30,31,31,32,32,33,33,34,34,35,35,36,36,38,38,39,39,41,41,42,42,45,45,47,47,49,49,51,51,52,52,54,54,55,55,56,56,57,57,58,58,59,59,60,60,62,62],"right_children":[2,4,6,8,10,12,14,16,18,20,22,24,26,28,30,32,34,36,38,40,42,44,46,48,50,52,54,56,58,60,62,64,66,68,70,72,74,-1,76,78,-1,80,82,-1,-1,84,-1,86,-1,88,-1,90,92,-1,94,96,98,100,102,104,106,-1,108,-1,-1,-1,-1,-1,-1,-1,-1,-1,-1,-1,-1,-1,-1,-1,-1,-1,-1,-1,-1,-1,-1,-1,-1,-1,-1,-1,-1,-1,-1,-1,-1,-1,-1,-1,-1,-1,-1,-1,-1,-1,-1,-1,-1,-1,-1],"split_conditions":[7.0046246E-1,7.164003E-1,5.5622375E-1,2.6509732E-1,4.658098E-1,3.436519E-1,9.155145E-1,4.8602524E-1,8.610181E-1,4.7634524E-1,3.9935887E-1,7.2259647E-1,6.510435E-1,4.2193848E-1,7.810856E-1,4.5917153E-1,2.353787E-1,6.3382447E-1,3.3358794E-1,2.7359504E-1,7.650142E-1,6.3808846E-1,6.684936E-1,2.8969783E-1,6.2918407E-1,7.362489E-1,7.156036E-1,3.7744474E-1,4.3530706E-1,9.215818E-1,6.209707E-1,9.217397E-2,4.5157057E-1,6.607092E-1,3.3595225E-1,5.7343745E-1,4.2788762E-1,4.5256194E-1,5.973104E-1,3.2654986E-1,-2.51532E-1,6.5068877E-1,2.6404667E-1,-5.3381425E-1,-4.445801E-2,7.1808666E-1,-2.0687257E-1,3.0832228E-1,-2.5004083E-1,5.153813E-1,-2.1501161E-1,6.351697E-1,4.7728065E-1,4.7013703E-1,8.5714287E-1,4.824868E-1,7.5529546E-1,3.0276477E-1,7.28574E-1,6.909948E-1,9.5416576E-1,-7.5279236E-2,2.5295994E-1,-2.9067993E-3,2.717908E-1,-1.774086E-1,-1.6090393E-2,-2.5957033E-1,-7.399689E-1,2.706085E-1,-2.5225347E-1,-8.1724875E-2,-4.975708E-1,2.8589815E-1,-1.3085634E-1,-5.4808047E-2,1.0626526E-1,-1.4745788E-1,8.104935E-2,4.0712097E-1,-3.820038E-2,-1.2662354E-1,1.276764E-1,1.8106124E-1,-2.7365113E-2,-1.2802328E-1,1.1149598E-2,-1.2743455E-1,-2.3079671E-2,-3.377043E-2,9.998613E-3,-3.3324588E-2,-1.4265926E-1,-8.509411E-2,9.056671E-2,3.9500915E-2,-1.23332776E-1,2.8161424E-1,5.4095767E-2,-3.9875796E-1,-5.013794E-2,-1.1165965E-1,1.7646195E-2,4.3955065E-2,-9.650574E-2,9.986703E-2,3.8868446E-2,2.883484E-1,1.2840806E-1],"split_indices":[18,5,19,1,10,19,18,0,16,0,15,18,1,11,19,19,6,9,2,1,5,1,0,7,9,0,18,11,11,18,4,13,0,5,3,11,8,0,0,11,0,0,2,0,0,4,0,8,0,0,0,17,19,0,12,13,18,1,18,8,15,0,2,0,0,0,0,0,0,0,0,0,0,0,0,0,0,0,0,0,0,0,0,0,0,0,0,0,0,0,0,0,0,0,0,0,0,0,0,0,0,0,0,0,0,0,0,0,0],"split_type":[0,0,0,0,0,0,0,0,0,0,0,0,0,0,0,0,0,0,0,0,0,0,0,0,0,0,0,0,0,0,0,0,0,0,0,0,0,0,0,0,0,0,0,0,0,0,0,0,0,0,0,0,0,0,0,0,0,0,0,0,0,0,0,0,0,0,0,0,0,0,0,0,0,0,0,0,0,0,0,0,0,0,0,0,0,0,0,0,0,0,0,0,0,0,0,0,0,0,0,0,0,0,0,0,0,0,0,0,0],"sum_hessian":[3.212E3,3.89E2,2.823E3,3.48E2,4.1E1,9.02E2,1.921E3,4.3E1,3.05E2,2.9E1,1.2E1,1.13E2,7.89E2,1.695E3,2.26E2,9E0,3.4E1,2.98E2,7E0,7E0,2.2E1,4E0,8E0,2.9E1,8.4E1,7.57E2,3.2E1,1.08E2,1.587E3,2.12E2,1.4E1,5E0,4E0,1E1,2.4E1,2.85E2,1.3E1,5E0,2E0,5E0,2E0,1.5E1,7E0,3E0,1E0,7E0,1E0,2.2E1,7E0,8.1E1,3E0,6.63E2,9.4E1,3E0,2.9E1,6.7E1,4.1E1,1.8E1,1.569E3,1.55E2,5.7E1,1E0,1.3E1,1E0,4E0,3E0,1E0,5E0,5E0,2E0,2.2E1,2.8E2,5E0,9E0,4E0,1E0,1E0,2E0,3E0,1.4E1,1E0,2E0,5E0,6E0,1E0,1.7E1,5E0,1.1E1,7E1,2.73E2,3.9E2,5.9E1,3.5E1,1E1,1.9E1,4.6E1,2.1E1,2.2E1,1.9E1,4E0,1.4E1,1.8E1,1.551E3,1.53E2,2E0,4.1E1,1.6E1,2E0,1.1E1],"tree_param":{"num_deleted":"0","num_feature":"20","num_nodes":"109","size_leaf_vector":"1"}},{"base_weights":[-2.2481948E-3,-6.0446836E-2,6.4672016E-2,-2.0869926E-1,-3.0464029E-2,5.2148336E-1,5.4961555E-2,-2.399406E-1,7.899136E-1,-1.4488582E-1,-8.770813E-3,1.3226691E0,1.8530273E-1,-1.9617836E-1,7.529373E-2,-3.1455716E-1,2.174881E-1,3.417049E-1,-8.638916E-2,-3.444035E-1,-7.6365866E-2,-4.624372E-2,8.8171825E-2,1.6381836E-1,1.8747915E0,1.8659212E-1,2.9451158E-2,4.2380592E-1,-3.4722865E-1,3.8364828E-1,6.8028055E-2,-3.5260168E-1,6.0333556E-1,7.459666E-1,-2.0555978E-1,1.2672594E-1,-4.2231873E-1,-1.8972296E-2,-1.8785727E-1,-3.824901E-2,-4.4466984E-1,5.8339846E-1,3.949114E-2,6.245931E-3,9.548035E-2,8.440247E-2,6.41164E-1,-3.1491524E-1,2.278773E-1,-4.6524048E-2,7.5299776E-1,-1.0069323E0,-1.6579771E-1,4.4765857E-1,2.1158274E-1,-4.007738E-1,7.117767E-2,1.4255768E-1,-1.16394795E-1,-3.2276917E-2,2.7701637E-1,7.0790865E-2,4.541042E-1,2.4945429E-2,-2.6320496E-1,-9.462433E-2,1.20109566E-1,-1.4070402E-1,2.7520753E-2,-2.76641E-2,3.2633975E-2,-2.5805157E-2,-1.0172743E-1,2.660724E-1,-1.3095741E-2,-2.3790477E-1,4.9876623E-2,-7.662702E-2,2.4112396E-1,2.4615E-3,7.2680816E-2,1.561432E-2,-1.280365E-2,-4.21875E-3,-2.1340944E-1,1.3407245E-1,-1.9691467E-2,1.9902101E-1,-1.8911286E-1,3.866936E-1,-2.6142884E-2,-5.569043E-1,-1.704712E-2,-3.5563922E-1,-1.6031025E-2,2.7133828E-1,-1.873387E-2,-2.534546E-1,-4.5960784E-2,-1.0840742E-2,2.5559422E-2],"categories":[],"categories_nodes":[],"categories_segments":[],"categories_sizes":[],"default_left":[0,0,0,0,0,0,0,0,0,0,0,0,0,0,0,0,0,0,0,0,0,0,0,0,0,0,0,0,0,0,0,0,0,0,0,0,0,0,0,0,0,0,0,0,0,0,0,0,0,0,0,0,0,0,0,0,0,0,0,0,0,0,0,0,0,0,0,0,0,0,0,0,0,0,0,0,0,0,0,0,0,0,0,0,0,0,0,0,0,0,0,0,0,0,0,0,0,0,0,0,0],"id":13,"left_children":[1,3,5,7,9,11,13,15,17,19,21,23,25,27,29,31,33,-1,-1,35,37,39,41,43,45,-1,47,49,51,53,55,57,59,61,63,65,67,69,71,73,75,77,79,81,-1,-1,-1,83,85,87,89,91,93,-1,95,97,99,-1,-1,-1,-1,-1,-1,-1,-1,-1,-1,-1,-1,-1,-1,-1,-1,-1,-1,-1,-1,-1,-1,-1,-1,-1,-1,-1,-1,-1,-1,-1,-1,-1,-1,-1,-1,-1,-1,-1,-1,-1,-1,-1,-1],"loss_changes":[1.2517468E1,7.6346383E0,6.6029325E0,9.205755E0,3.550724E0,8.104543E0,7.4953847E0,9.659435E0,3.7146053E0,3.090674E0,4.377875E0,5.4513206E0,1.5469668E0,1.0448526E1,3.0118885E0,8.663565E0,9.096209E0,0E0,0E0,2.1825914E0,1.0906459E0,2.751019E0,8.077239E0,9.5360026E-2,1.9076481E0,0E0,1.3017253E0,3.4412658E0,1.048552E1,5.5973024E0,1.9864235E0,7.008505E0,2.374679E0,6.6903925E0,4.5338793E0,1.2151636E0,1.2432051E0,1.0767001E0,8.64131E-1,4.3029027E0,3.749671E0,5.7502794E0,1.9456657E0,8.943863E-3,0E0,0E0,0E0,8.2490677E-1,8.0080175E-1,4.5631194E0,5.9662166E0,1.5228214E1,8.071171E0,0E0,5.3728037E0,8.6002827E-1,1.9861121E0,0E0,0E0,0E0,0E0,0E0,0E0,0E0,0E0,0E0,0E0,0E0,0E0,0E0,0E0,0E0,0E0,0E0,0E0,0E0,0E0,0E0,0E0,0E0,0E0,0E0,0E0,0E0,0E0,0E0,0E0,0E0,0E0,0E0,0E0,0E0,0E0,0E0,0E0,0E0,0E0,0E0,0E0,0E0,0E0],"parents":[2147483647,0,0,1,1,2,2,3,3,4,4,5,5,6,6,7,7,8,8,9,9,10,10,11,11,12,12,13,13,14,14,15,15,16,16,19,19,20,20,21,21,22,22,23,23,24,24,26,26,27,27,28,28,29,29,30,30,31,31,32,32,33,33,34,34,35,35,36,36,37,37,38,38,39,39,40,40,41,41,42,42,43,43,47,47,48,48,49,49,50,50,51,51,52,52,54,54,55,55,56,56],"right_children":[2,4,6,8,10,12,14,16,18,20,22,24,26,28,30,32,34,-1,-1,36,38,40,42,44,46,-1,48,50,52,54,56,58,60,62,64,66,68,70,72,74,76,78,80,82,-1,-1,-1,84,86,88,90,92,94,-1,96,98,100,-1,-1,-1,-1,-1,-1,-1,-1,-1,-1,-1,-1,-1,-1,-1,-1,-1,-1,-1,-1,-1,-1,-1,-1,-1,-1,-1,-1,-1,-1,-1,-1,-1,-1,-1,-1,-1,-1,-1,-1,-1,-1,-1,-1],"split_conditions":[6.3097143E-1,6.8829656E-1,3.9634243E-1,8.7313837E-1,3.80411E-1,7.191066E-1,4.080375E-1,7.3885345E-1,5.442396E-1,7.213875E-1,4.189959E-1,3.323467E-1,2.153913E-1,8.5714287E-1,7.3211545E-1,8.071756E-1,6.972834E-1,3.417049E-1,-8.638916E-2,6.9691616E-1,7.003439E-1,8.683754E-1,7.2259647E-1,6.8433553E-1,5.787561E-1,1.8659212E-1,7.6257E-1,4.7835907E-1,5.110889E-1,5.545291E-1,3.4448808E-1,4.8837173E-1,2.4903904E-1,6.615111E-1,4.8172125E-1,2.2685097E-1,4.9838704E-1,5.0013536E-1,5.118868E-1,6.919021E-1,8.745367E-1,4.8138034E-1,6.5772504E-1,6.5068877E-1,9.548035E-2,8.440247E-2,6.41164E-1,6.2169397E-1,8.029836E-1,6.525557E-1,5.0576556E-1,4.9966562E-1,3.09464E-1,4.4765857E-1,4.8544586E-1,2.5754252E-1,1.4285715E-1,1.4255768E-1,-1.16394795E-1,-3.2276917E-2,2.7701637E-1,7.0790865E-2,4.541042E-1,2.4945429E-2,-2.6320496E-1,-9.462433E-2,1.20109566E-1,-1.4070402E-1,2.7520753E-2,-2.76641E-2,3.2633975E-2,-2.5805157E-2,-1.0172743E-1,2.660724E-1,-1.3095741E-2,-2.3790477E-1,4.9876623E-2,-7.662702E-2,2.4112396E-1,2.4615E-3,7.2680816E-2,1.561432E-2,-1.280365E-2,-4.21875E-3,-2.1340944E-1,1.3407245E-1,-1.9691467E-2,1.9902101E-1,-1.8911286E-1,3.866936E-1,-2.6142884E-2,-5.569043E-1,-1.704712E-2,-3.5563922E-1,-1.6031025E-2,2.7133828E-1,-1.873387E-2,-2.534546E-1,-4.5960784E-2,-1.0840742E-2,2.5559422E-2],"split_indices":[19,18,10,0,19,18,6,4,3,18,2,3,2,12,18,17,16,0,0,18,0,3,18,0,0,0,18,11,18,0,7,0,18,16,18,13,2,9,3,18,16,4,1,0,0,0,0,16,18,5,11,13,1,0,3,2,12,0,0,0,0,0,0,0,0,0,0,0,0,0,0,0,0,0,0,0,0,0,0,0,0,0,0,0,0,0,0,0,0,0,0,0,0,0,0,0,0,0,0,0,0],"split_type":[0,0,0,0,0,0,0,0,0,0,0,0,0,0,0,0,0,0,0,0,0,0,0,0,0,0,0,0,0,0,0,0,0,0,0,0,0,0,0,0,0,0,0,0,0,0,0,0,0,0,0,0,0,0,0,0,0,0,0,0,0,0,0,0,0,0,0,0,0,0,0,0,0,0,0,0,0,0,0,0,0,0,0,0,0,0,0,0,0,0,0,0,0,0,0,0,0,0,0,0,0],"sum_hessian":[3.212E3,1.718E3,1.494E3,2.88E2,1.43E3,3E1,1.464E3,2.8E2,8E0,2.27E2,1.203E3,8E0,2.2E1,1.09E2,1.355E3,2.41E2,3.9E1,6E0,2E0,5.7E1,1.7E2,8.68E2,3.35E2,3E0,5E0,5E0,1.7E1,2.1E1,8.8E1,3E1,1.325E3,2.32E2,9E0,1.7E1,2.2E1,8E0,4.9E1,1.13E2,5.7E1,8.52E2,1.6E1,2.9E1,3.06E2,2E0,1E0,1E0,4E0,6E0,1.1E1,9E0,1.2E1,1.8E1,7E1,3E0,2.7E1,8E0,1.317E3,9E0,2.23E2,3E0,6E0,1.1E1,6E0,1.6E1,6E0,3E0,5E0,4.5E1,4E0,7.2E1,4.1E1,3.5E1,2.2E1,4E0,8.48E2,1E1,6E0,6E0,2.3E1,2.66E2,4E1,1E0,1E0,4E0,2E0,6E0,5E0,4E0,5E0,7E0,5E0,9E0,9E0,6E0,6.4E1,7E0,2E1,2E0,6E0,1.52E2,1.165E3],"tree_param":{"num_deleted":"0","num_feature":"20","num_nodes":"101","size_leaf_vector":"1"}},{"base_weights":[-1.0661349E-3,-3.5863657E-2,6.64605E-2,-4.785433E-1,-3.014136E-2,5.8644556E-2,2.3915912E-1,1.4849345E-2,-8.1867886E-1,-6.67673E-1,-2.6148057E-2,3.2139674E-2,9.086525E-2,1.180954E-1,3.9669037E-1,1.2473145E-1,-1.649882E-1,1.3237762E-1,-1.0483363E0,-5.9706116E-1,-3.9161173E-1,-1.7042167E-1,-1.0137895E-2,2.323084E-2,3.4249687E-1,-8.924388E-3,1.170372E-1,-1.24893196E-1,1.752155E-1,1.17947385E-1,6.140303E-1,-1.1067506E-1,-5.4020472E-2,-1.2866364E-1,1.3872682E-1,-1.4178532E0,-5.290571E-1,-5.3734434E-1,6.741028E-2,1.2040114E-1,-2.5144884E-1,-2.632113E-1,-1.7754612E-3,5.6730127E-3,1.8146351E-1,4.3297905E-1,-1.9391887E-1,-1.8336673E-1,1.1244952E-1,-3.2282257E-1,1.2630652E-1,2.8656685E-1,-6.695557E-2,1.1398087E-1,-4.8610143E-2,6.632843E-1,1.8223573E-2,8.290101E-3,-3.665085E-2,-7.6135255E-2,-4.7087023E-1,-1.7130433E-1,-4.1596986E-2,-3.567261E-2,-2.38945E-1,8.950396E-2,-8.017273E-2,-1.2492068E-1,-1.9906031E-2,-2.1928303E-1,-1.3605391E-2,2.9537586E-2,-9.123755E-3,2.4317464E-2,-1.4036351E-2,1.1265598E-1,2.2918702E-4,1.8853064E-1,6.2349703E-2,-7.177277E-2,-1.5490723E-2,4.0144566E-2,-7.246922E-2,6.21313E-2,-1.6846953E-2,-1.0784913E-2,-1.4632691E-1,6.097672E-2,2.4510546E-2,9.862654E-2,-6.4595036E-2,-6.4302064E-2,5.125809E-2,3.7394717E-2,-6.291504E-2,7.80365E-2,2.1946794E-1],"categories":[],"categories_nodes":[],"categories_segments":[],"categories_sizes":[],"default_left":[0,0,0,0,0,0,0,0,0,0,0,0,0,0,0,0,0,0,0,0,0,0,0,0,0,0,0,0,0,0,0,0,0,0,0,0,0,0,0,0,0,0,0,0,0,0,0,0,0,0,0,0,0,0,0,0,0,0,0,0,0,0,0,0,0,0,0,0,0,0,0,0,0,0,0,0,0,0,0,0,0,0,0,0,0,0,0,0,0,0,0,0,0,0,0,0,0],"id":14,"left_children":[1,3,5,7,9,11,13,15,17,19,21,23,25,27,29,-1,31,33,35,-1,37,39,41,43,45,47,49,-1,51,53,55,-1,57,-1,-1,59,61,63,-1,65,67,69,71,73,75,77,79,81,83,85,87,89,91,-1,93,95,-1,-1,-1,-1,-1,-1,-1,-1,-1,-1,-1,-1,-1,-1,-1,-1,-1,-1,-1,-1,-1,-1,-1,-1,-1,-1,-1,-1,-1,-1,-1,-1,-1,-1,-1,-1,-1,-1,-1,-1,-1],"loss_changes":[7.5521607E0,5.3583765E0,1.4613094E0,4.5433083E0,5.3161135E0,8.912239E-1,8.495047E-1,9.338076E-1,3.6334515E0,3.9669065E0,4.809677E0,1.5846376E0,1.233762E0,9.276533E-1,1.1392164E0,0E0,1.8373643E-1,9.3928283E-1,1.7443457E0,0E0,1.1985441E0,4.9317E0,3.96973E0,1.557553E0,8.6053956E-1,2.1167216E0,1.5656481E0,0E0,7.203051E-1,4.5483088E-1,2.5947523E-1,0E0,4.2328544E-2,0E0,0E0,8.3790874E-1,3.548622E-2,9.8962116E-1,0E0,3.2527828E0,4.9491053E0,6.0808573E0,5.218527E0,2.004907E0,1.9634039E0,4.8547983E-1,6.992914E-3,7.8915E-1,9.532332E-1,3.609854E-1,1.2430463E0,4.5191133E-1,3.5207587E-1,0E0,2.2153346E-1,8.496666E-2,0E0,0E0,0E0,0E0,0E0,0E0,0E0,0E0,0E0,0E0,0E0,0E0,0E0,0E0,0E0,0E0,0E0,0E0,0E0,0E0,0E0,0E0,0E0,0E0,0E0,0E0,0E0,0E0,0E0,0E0,0E0,0E0,0E0,0E0,0E0,0E0,0E0,0E0,0E0,0E0,0E0],"parents":[2147483647,0,0,1,1,2,2,3,3,4,4,5,5,6,6,7,7,8,8,9,9,10,10,11,11,12,12,13,13,14,14,16,16,17,17,18,18,20,20,21,21,22,22,23,23,24,24,25,25,26,26,28,28,29,29,30,30,32,32,35,35,36,36,37,37,39,39,40,40,41,41,42,42,43,43,44,44,45,45,46,46,47,47,48,48,49,49,50,50,51,51,52,52,54,54,55,55],"right_children":[2,4,6,8,10,12,14,16,18,20,22,24,26,28,30,-1,32,34,36,-1,38,40,42,44,46,48,50,-1,52,54,56,-1,58,-1,-1,60,62,64,-1,66,68,70,72,74,76,78,80,82,84,86,88,90,92,-1,94,96,-1,-1,-1,-1,-1,-1,-1,-1,-1,-1,-1,-1,-1,-1,-1,-1,-1,-1,-1,-1,-1,-1,-1,-1,-1,-1,-1,-1,-1,-1,-1,-1,-1,-1,-1,-1,-1,-1,-1,-1,-1],"split_conditions":[8.765047E-1,2.3038259E-1,7.8284717E-1,5.8722913E-1,8.248728E-2,1E0,4.7878307E-1,2.0948575E-1,2.6148963E-1,6.849444E-2,2.6229757E-1,8.949515E-1,3.3260423E-1,1.4285715E-1,7.91347E-1,1.2473145E-1,4.907495E-1,5.3383833E-1,7.0046246E-1,-5.9706116E-1,2.1746996E-1,1.5411785E-1,4.4876775E-1,7.721593E-1,7.343017E-1,9.0745026E-1,4.660619E-1,-1.24893196E-1,5.8348763E-1,7.921868E-1,8.5823214E-1,-1.1067506E-1,4.6104375E-1,-1.2866364E-1,1.3872682E-1,2.5022835E-1,3.7595975E-1,2.867303E-1,6.741028E-2,5.128305E-1,6.593373E-1,4.3167508E-1,3.146153E-1,7.680287E-1,6.1648357E-1,8.9766E-1,6.023872E-1,5.98836E-1,5.367823E-1,4.682402E-1,6.6886336E-1,8.209248E-1,6.059293E-1,1.1398087E-1,6.5784484E-1,3.09464E-1,1.8223573E-2,8.290101E-3,-3.665085E-2,-7.6135255E-2,-4.7087023E-1,-1.7130433E-1,-4.1596986E-2,-3.567261E-2,-2.38945E-1,8.950396E-2,-8.017273E-2,-1.2492068E-1,-1.9906031E-2,-2.1928303E-1,-1.3605391E-2,2.9537586E-2,-9.123755E-3,2.4317464E-2,-1.4036351E-2,1.1265598E-1,2.2918702E-4,1.8853064E-1,6.2349703E-2,-7.177277E-2,-1.5490723E-2,4.0144566E-2,-7.246922E-2,6.21313E-2,-1.6846953E-2,-1.0784913E-2,-1.4632691E-1,6.097672E-2,2.4510546E-2,9.862654E-2,-6.4595036E-2,-6.4302064E-2,5.125809E-2,3.7394717E-2,-6.291504E-2,7.80365E-2,2.1946794E-1],"split_indices":[18,19,4,17,9,12,14,6,14,15,1,9,1,12,17,0,1,0,18,0,3,8,18,19,3,18,5,0,8,4,3,0,14,0,0,3,2,16,0,19,3,19,6,11,0,18,0,19,14,8,4,4,8,0,3,1,0,0,0,0,0,0,0,0,0,0,0,0,0,0,0,0,0,0,0,0,0,0,0,0,0,0,0,0,0,0,0,0,0,0,0,0,0,0,0,0,0],"split_type":[0,0,0,0,0,0,0,0,0,0,0,0,0,0,0,0,0,0,0,0,0,0,0,0,0,0,0,0,0,0,0,0,0,0,0,0,0,0,0,0,0,0,0,0,0,0,0,0,0,0,0,0,0,0,0,0,0,0,0,0,0,0,0,0,0,0,0,0,0,0,0,0,0,0,0,0,0,0,0,0,0,0,0,0,0,0,0,0,0,0,0,0,0,0,0,0,0],"sum_hessian":[3.212E3,2.12E3,1.092E3,2.6E1,2.094E3,1.046E3,4.6E1,1.1E1,1.5E1,1.2E1,2.082E3,5.75E2,4.71E2,2.7E1,1.9E1,3E0,8E0,3E0,1.2E1,1E0,1.1E1,2.07E2,1.875E3,5.6E2,1.5E1,9.8E1,3.73E2,2E0,2.5E1,9E0,1E1,2E0,6E0,1E0,2E0,6E0,6E0,9E0,2E0,4.5E1,1.62E2,5.9E1,1.816E3,5.05E2,5.5E1,1.3E1,2E0,4E1,5.8E1,7E0,3.66E2,1.7E1,8E0,3E0,6E0,9E0,1E0,3E0,3E0,1E0,5E0,5E0,1E0,4E0,5E0,3.1E1,1.4E1,8.5E1,7.7E1,1.8E1,4.1E1,4.03E2,1.413E3,2.07E2,2.98E2,2.6E1,2.9E1,6E0,7E0,1E0,1E0,6E0,3.4E1,3.7E1,2.1E1,3E0,4E0,1.33E2,2.33E2,1.6E1,1E0,5E0,3E0,3E0,3E0,2E0,7E0],"tree_param":{"num_deleted":"0","num_feature":"20","num_nodes":"97","size_leaf_vector":"1"}},{"base_weights":[-1.178783E-3,-1.0650238E-1,1.4437676E-2,-8.911425E-2,-9.799843E-1,-2.2714144E-1,2.2087406E-2,-1.1345986E-1,3.431979E-1,-1.2717241E0,1.5932924E-1,-1.3009322E0,-1.0033045E-1,1.7072529E-1,1.0894026E-2,-2.7856708E-1,-2.0835906E-2,5.809672E-1,-1.4551926E-1,-6.469299E-1,-5.6674194E-1,-1.6771908E0,2.5637054E-1,-1.5931378E-1,2.068411E-1,-5.4360006E-2,2.9096714E-1,-5.679291E-1,1.2398419E-2,-1.8347241E-1,-1.1145216E0,-9.722595E-1,2.6451487E-3,2.807312E-1,3.3758792E-1,-2.738749E-1,4.7909547E-2,-2.1447144E-1,-5.625458E-2,-1.4276277E-1,-5.342475E-1,-2.0945564E-1,2.5132243E-2,7.4439085E-1,-1.1478E-1,-3.092767E-1,1.3658729E-1,-7.2076745E-2,4.4030416E-1,6.7807257E-4,1.1401706E-1,-6.7360975E-2,2.5655642E-1,-4.2840913E-1,-7.937989E-2,-5.4919433E-2,-3.9632723E-1,2.5135577E-1,-3.368457E-3,2.018097E-1,-1.18050715E-2,-1.4343263E-3,-1.22167975E-1,-4.1212026E-2,-1.3969117E-1,3.4598697E-2,-3.881531E-2,-8.4686285E-4,2.7957E-1,-8.7976076E-2,5.4487612E-2,2.4965058E-1,-1.1392888E-1,-1.3081741E-1,8.264408E-2,-2.8844056E-1,1.9459119E-2,1.800459E-1,-3.995682E-2,-2.6582995E-2,5.298787E-3,1.5076097E-2,6.918043E-2],"categories":[],"categories_nodes":[],"categories_segments":[],"categories_sizes":[],"default_left":[0,0,0,0,0,0,0,0,0,0,0,0,0,0,0,0,0,0,0,0,0,0,0,0,0,0,0,0,0,0,0,0,0,0,0,0,0,0,0,0,0,0,0,0,0,0,0,0,0,0,0,0,0,0,0,0,0,0,0,0,0,0,0,0,0,0,0,0,0,0,0,0,0,0,0,0,0,0,0,0,0,0,0],"id":15,"left_children":[1,3,5,7,9,11,13,15,17,19,-1,21,23,25,27,29,31,33,35,37,-1,39,-1,41,43,45,47,-1,49,51,53,55,57,59,-1,61,-1,-1,-1,-1,-1,63,65,67,69,71,73,75,77,79,81,-1,-1,-1,-1,-1,-1,-1,-1,-1,-1,-1,-1,-1,-1,-1,-1,-1,-1,-1,-1,-1,-1,-1,-1,-1,-1,-1,-1,-1,-1,-1,-1],"loss_changes":[5.286221E0,6.2157793E0,5.1776114E0,4.3331003E0,4.202152E0,1.1579965E1,4.513585E0,5.9125423E0,2.6409845E0,1.4781628E0,0E0,8.732507E0,1.4461569E0,5.158105E0,7.255957E0,1.0845298E1,5.565339E0,2.135488E0,3.5714883E-1,2.2087574E-2,0E0,1.4852524E-1,0E0,6.1566293E-1,2.3329768E0,3.3035123E0,6.754506E0,0E0,3.0060213E0,5.56614E0,3.3525562E0,1.4099293E0,2.8366632E0,1.4065485E0,0E0,2.1335766E-1,0E0,0E0,0E0,0E0,0E0,8.962729E-1,2.2397517E-1,7.031777E-1,5.29367E-1,2.6492548E0,3.2220457E0,4.5687323E0,8.147091E0,3.4349601E0,1.9286375E0,0E0,0E0,0E0,0E0,0E0,0E0,0E0,0E0,0E0,0E0,0E0,0E0,0E0,0E0,0E0,0E0,0E0,0E0,0E0,0E0,0E0,0E0,0E0,0E0,0E0,0E0,0E0,0E0,0E0,0E0,0E0,0E0],"parents":[2147483647,0,0,1,1,2,2,3,3,4,4,5,5,6,6,7,7,8,8,9,9,11,11,12,12,13,13,14,14,15,15,16,16,17,17,18,18,19,19,21,21,23,23,24,24,25,25,26,26,28,28,29,29,30,30,31,31,32,32,33,33,35,35,41,41,42,42,43,43,44,44,45,45,46,46,47,47,48,48,49,49,50,50],"right_children":[2,4,6,8,10,12,14,16,18,20,-1,22,24,26,28,30,32,34,36,38,-1,40,-1,42,44,46,48,-1,50,52,54,56,58,60,-1,62,-1,-1,-1,-1,-1,64,66,68,70,72,74,76,78,80,82,-1,-1,-1,-1,-1,-1,-1,-1,-1,-1,-1,-1,-1,-1,-1,-1,-1,-1,-1,-1,-1,-1,-1,-1,-1,-1,-1,-1,-1,-1,-1,-1],"split_conditions":[2.4591915E-1,2.6112074E-1,3.3537307E-1,6.510435E-1,6.648255E-1,6.519988E-1,3.146153E-1,4.2268872E-1,7.273008E-1,3.3968267E-1,1.5932924E-1,